60922.png -0.1410893 -0.32220763 0.057179954 -0.055043343 0.036918055 -0.053608224 -0.4889583 -0.1461704 0.2605171 0.13773029 -0.19714555 0.12911603 -0.42810473 0.1511336 -0.1409076 0.15476136 -0.10670124 0.23666766 0.07059481 -0.18663143 -0.46510947 -0.09044387 -0.19987679 -0.111237176 0.3053974 -0.0151784355 -0.055865735 0.33486438 -0.17627266 -0.21888536 0.070107855 -0.00057275745 -0.23166628 -0.06370463 -0.23262998 -0.16535999 0.038954098 0.11892185 -0.32247055 0.23937276 -0.036968976 0.297434 -0.1892977 -0.13376854 0.29632112 -0.117970765 0.20502436 -0.19018269 0.10429918 -0.08640968 0.05273247 0.07559262 -0.18895963 -0.011484039 -0.003683621 -0.116366155 -0.1003019 -0.23002852 0.14477637 -0.039766707 0.11557535 0.20721163 -0.16838701 0.15016532 -0.2699535 -0.025415396 -0.15088211 -0.045959607 0.050567586 0.059919424 -0.12301219 0.00087361183 0.0576273 -0.2818143 -0.02824997 -0.19856681 0.013971263 -0.0700273 0.32867843 0.23297252 0.04879149 0.029856376 -0.17483577 -0.082629286 0.17329033 0.078445636 -0.0655759 0.4066464 -0.08160982 0.06183612 -0.027648978 -0.05642713 0.30709565 0.102632634 0.012924539 0.3886177 0.041875146 -0.10723501 -0.0036594674 0.2104374 0.040776197 0.054027334 -0.003622413 0.23565616 0.033020303 -0.5578841 -0.25612807 0.057510037 -0.13298663 -0.096090876 -0.15231471 0.12049597 0.13139923 -0.1292186 -0.047338318 0.34698325 -0.07210991 -0.07039015 0.3849333 0.11357149 0.084281385 0.12617926 -0.1516692 0.12762854 0.2821892 0.37580332 -0.061038073 -0.2699335 0.31195995 0.12394845 0.13158284 0.33001548 0.14623363 0.004305368 -0.06352363 -0.20985344 0.33770657 0.016495219 -0.13141519 0.21029012 0.21118811 -0.1596032 0.28369308 -0.10116832 0.16444628 -0.33607024 0.11604386 0.07418519 0.049144197 -0.062249966 -0.068718754 0.16904013 -0.17661907 0.049507458 0.31333113 0.1978331 0.07183883 0.13701794 -0.06934378 0.047262907 -0.008100366 -0.33829528 0.30081344 -0.19460626 0.21338814 0.4479125 0.021609938 0.058769815 -0.2174802 -0.049079068 -0.41159403 0.3109392 -0.26559323 0.23948216 0.0544981 -0.10494479 0.18771912 -0.057836678 -0.06462206 -0.36703208 0.116505586 0.027451284 0.06415595 -0.0031793504 -0.41452557 0.08824195 0.16276112 0.074553974 -0.4718741 0.073837094 -0.011567061 0.081642926 0.07876539 -0.11961875 0.11203863 -0.15693052 -0.46536392 0.13426971 -0.118664674 0.13122894 -0.0018562155 0.32549506 -0.37954822 -0.058987837 -0.15313524 0.24530648 0.03271397 -0.24157146 0.2106191 0.009687918 -0.36407104 0.09405359 -0.13294956 -0.35313484 0.1220218 0.20121096 0.12925504 0.33550656 0.21187925 -0.12686186 0.11500236 0.019521324 0.0777387 -0.0073780604 0.19730198 0.4105653 0.040668722 -0.13019715 -0.04306024 -0.16772944 -0.09769219 0.0500133 -0.13114302 0.5416289 -0.018103024 0.01794429 0.3041373 0.07422452 0.010185833 0.06968875 0.083791286 -0.0055207117 0.07088424 0.40230423 -0.28768235 -0.15830363 -0.24141756 -0.055854935 -0.18479134 -0.14685892 -0.0053905444 -0.0100333365 -0.07250769 -0.15357855 -0.055889662 -0.04818661 -0.15475512 -0.29473606 -0.05107749 0.09099541 -0.06931585 -0.102434576 0.13869153 -0.08363534 -0.059173964 -0.23390332 -0.13314092 -0.19244808 0.10481577 0.22490674 -0.0792671 -0.058767755 -0.28845483 0.20300947 -0.04104713 -0.20140009 -0.044884678 0.27237284 0.167105 0.061485115 0.19559248 0.24553224 0.10736837 0.09178643 0.10635106 -0.108580664 0.049239535 0.33270106 0.08242988 0.24461266 -0.05924634 -0.024108833 -0.112225644 0.5061083 0.033664048 0.016118765 -0.08311188 0.115672685 0.13783823 0.10672121 -0.077477686 -0.18146822 0.23009324 -0.1904657 0.028362788 -0.033167616 -0.17621502 0.04349248 0.003538725 0.034835566 -0.07668286 -0.15029432 0.019876964 -0.11266834 -0.21413559 -0.23786075 -0.09151368 0.19666618 -0.06544959 -0.058358286 0.22528453 0.041307397 -0.26470062 0.19268201 -0.21599866 -0.038904555 -0.08614629 -0.18323557 0.11905409 0.13856266 0.1721621 -0.37056872 -0.38930115 0.11469694 0.037180897 -0.1391331 -0.039586198 0.14928427 0.037070643 0.102549694 0.055000287 0.23504363 0.256595 0.0231748 0.104731545 0.020733116 -0.47243926 -0.1409481 0.14535417 0.23052064 0.4151863 0.013072805 0.31415293 0.39942887 0.23347892 -0.21298614 -0.35563782 0.26705343 0.1625931 0.21457861 -0.023030432 -0.05192965 -0.048387416 -0.011912784 0.1646176 0.24058804 0.16516127 -0.30347574 0.29030082 -0.047553923 -0.039034586 0.09313511 0.06437656 0.1662108 -0.030261025 -0.19437444 -0.35513377 0.14377765 0.30750427 -0.2854477 -0.23441616 0.07131978 0.34093028 0.15227337 0.07973868 -0.14917855 -0.20295368 0.08677234 0.18607748 0.116230614 0.025469644 0.3957686 0.044877883 0.14340915 -0.014765346 -0.20149781 0.07553566 0.008826525 0.10908639 -0.18368945 0.008397996 -0.24707462 0.15167621 0.03511723 0.08792191 -0.021283183 -0.027095366 0.22879806 -0.08434537 -0.1147061 -0.09827516 0.0019167608 -0.10929803 -0.16589527 0.2977549 0.09522144 0.16089703 0.09748313 0.42136845 -0.34639096 -0.06817675 -0.057011787 0.039607618 -0.29997486 0.14949681 -0.027376348 -0.31539002 -0.17611897 0.21418422 0.11247376 0.21263033 -0.16358855 -0.09584421 0.0002457424 -0.19487494 -0.45499423 0.20135012 -0.051676918 -0.04492407 0.06358381 -0.11230558 0.0023636182 -0.32894894 0.14265524 -0.060786895 0.07613937 0.008978971 -0.10525473 -0.09153219 0.14675958 -0.25943115 -0.067984134 0.07156929 0.2165914 0.2572305 -0.1539086 -0.2923887 0.23951162 0.29545718 -0.06706772 -0.27445382 -0.14941756 -0.10987382 0.079293326 0.111365184 -0.06860194 0.10519016 -0.020991687 0.16638659 0.12325993 0.12855224 -0.07062954 -0.019015849 0.029485106 -0.0047721756 0.118275955 -0.17108712 0.29752672 0.28266308 0.044388775 0.019926392 -0.029322354 -0.10258899 -0.15236624 0.051000386 -0.16586374 0.167733 0.21932967 0.14891472 -0.038581803 -0.19547524 -0.084255666 0.014202973 0.04794223 -0.26747018 -0.021688255 0.33734456 0.25391123 -0.082628496 0.048339806 0.14940436 -0.16134596 -0.19086516 -0.31681162 -0.0064236694 0.07739365 0.18721093 -0.17242081 -0.32951605 0.00532394 -0.030471187 -0.24252875
63252.png -0.12190636 0.2318744 0.0329785 0.22946152 -0.08005332 -0.16669959 -0.20394559 -0.19482942 -0.0011862322 -0.19136477 -0.37490112 0.14497231 -0.2171813 0.12845713 -0.00020834658 0.036796253 -0.15260656 0.23189884 0.1723694 -0.2000206 -0.28828835 0.021786455 -0.21537194 0.313624 0.20759821 -0.16440101 0.059601534 0.3713493 0.26107317 -0.052612904 -0.23456392 -0.35248134 -0.010492075 -0.12286198 -0.07895613 -0.05194959 0.12140603 -0.1469567 -0.1471261 -0.18269056 0.11840564 -0.35546094 -0.16470692 -0.29587546 0.31865656 0.14081931 0.21614952 -0.1031341 -0.058119748 -0.04629249 -0.15655017 -0.08053729 0.19949253 0.17181103 0.043402374 -0.1364221 0.102045275 -0.14002265 0.28944665 0.0068308963 0.11319173 0.04371283 -0.099651456 0.10002995 -0.13967574 0.003770973 -0.09996564 -0.097021975 0.016457476 -0.108788446 0.24096242 0.021518491 0.35993516 -0.13603386 0.14143606 -0.0021277328 -0.1555315 0.022412136 0.1715738 -0.14583968 0.0076040407 -0.26765984 -0.21138121 0.3378806 -0.21045114 0.072935015 -0.09220327 -0.050145455 -0.009600886 -0.25600237 -0.048142236 -0.1966432 0.21040247 -0.11736006 -0.16301699 0.10608724 -0.12897739 -0.2439473 -0.20697862 -0.073457584 0.036243785 -0.07815264 0.11588466 0.07924587 -0.02738664 -0.14843042 0.17252734 -0.042898063 -0.044872664 -0.26967424 -0.028685337 0.25019795 0.001110803 -0.36720523 0.087552555 0.291526 0.04183411 -0.12802815 -0.039088145 0.018705122 -0.07844324 -0.14795339 0.18962891 0.251568 0.09240722 -0.16461146 0.0955526 -0.2591791 0.31293252 -0.06599273 0.06786655 0.17084835 0.31473002 -0.1045633 -0.028752929 0.05744274 0.10783828 -0.20206703 0.23737021 -0.028890876 -0.031850416 0.041125912 0.021012252 -0.009805736 -0.26463187 -0.075898424 0.07637017 0.26043636 0.15080023 0.16892877 -0.18500836 0.0045463587 0.21274745 -0.11897001 0.04865645 0.035607133 -0.13301453 0.053400714 0.0033996238 -0.1381247 -0.25644112 0.10113207 0.11616817 -0.032294817 0.035696793 -0.076713204 -0.0070173866 0.023824949 -0.28899205 0.1332051 -0.40986985 -0.02494926 -0.060671296 0.28701845 0.05778185 -0.20617972 -0.07966825 -0.05208349 0.06621011 -0.1220468 0.08384692 -0.18210298 -0.14531878 0.23826197 -0.20310608 -0.13844737 -0.08822078 -0.07235841 -0.31134853 -0.13054076 -0.03381978 -0.094993345 -0.24230033 -0.15796608 0.053294078 0.019889465 -0.29640177 0.023081142 -0.27334383 -0.0011491473 -0.17372003 -0.03873096 -0.24076276 0.030087914 0.18710777 -0.06280077 -0.24873781 0.21069072 -0.07171829 -0.1821061 -0.41092345 -0.028404906 0.0016083202 -0.09274455 -0.12083999 -0.099309795 0.02974827 -0.025214953 -0.11752128 0.10074229 0.17068213 0.0984606 -0.053401556 -0.0591392 0.17841761 0.14702451 0.08036477 0.20602387 -0.060428906 -0.63993925 -0.117273934 -0.17146632 -0.072808474 -0.051441897 0.10513228 0.038207162 -0.073361 -0.045097213 -0.05014161 -0.09722577 0.040329814 0.10174422 0.21340379 0.053105146 0.12703301 0.04897631 0.04550055 -0.2061948 0.00078541995 0.001642586 0.02613463 0.24027106 -0.5117096 -0.051329285 -0.21476775 -0.1625196 -0.39507934 0.05082229 -0.06579362 -0.1318207 -0.180996 -0.20991953 0.14400055 -0.44769052 -0.08253908 -0.05082652 0.09317796 -0.036255095 0.15682925 0.17592782 -0.2717558 -0.11777035 -0.2924931 0.21595928 0.1330113 -0.26983228 -0.022654004 0.4118515 0.0407191 -0.10387143 0.10404104 -0.0681288 0.38171378 0.10597159 0.10458475 -0.16611324 0.045621466 0.03820794 0.116650365 0.01491853 0.09931091 -0.11524261 0.0070150485 -0.01859025 -0.061677627 0.09026436 0.3799137 -0.0123506095 0.3108335 0.15553756 -0.26743785 -0.14302163 0.11898394 0.12709738 -0.030034846 0.17647117 -0.034715615 0.015794234 0.07129007 -0.12451873 0.10429643 -0.22418934 0.054495316 -0.030870767 0.053526044 0.006039828 -0.098681584 -0.21019624 -0.15916154 -0.2882206 0.31091246 0.12402641 -0.07896165 -0.18838157 0.1415021 0.009455862 -0.16061753 0.1139501 -0.1571372 0.062943175 -0.15657032 -0.25746176 0.04727448 -0.23355994 -0.104824156 0.070169784 -0.08491899 -0.06267355 -0.21210068 0.4847091 0.13249576 0.014810104 0.19676681 -0.005747835 -0.037224274 -0.0003351226 0.060094014 0.0074927076 -0.17071046 0.05025407 -0.029589608 -0.03164732 0.04958849 0.065536246 0.12462238 0.025281396 -0.050065666 0.035208214 -0.05393026 -0.075104296 0.11944176 0.3465131 0.0034744674 0.01535446 -0.28688237 0.28576592 0.2130302 -0.5073467 0.16355087 0.049025837 -0.03634195 -0.14131397 0.064598046 0.13513763 0.15896814 -0.030606093 -0.060760792 -0.03588533 -0.1414742 0.044315115 0.06206435 -0.017226502 0.21978234 -0.05173 0.089013375 0.055395596 -0.27382877 0.05983718 -0.025881026 0.1010058 -0.007891411 -0.009753872 -0.010391421 0.011462991 -0.1305316 0.024646727 0.08223389 0.054395564 0.26763976 -0.0765132 0.0032665299 -0.37914807 -0.4201119 0.24058208 -0.17975949 -0.22383514 -0.40318346 -0.02205198 -0.19529839 -0.20591621 0.13297789 0.08350269 0.4547373 -0.034673262 0.09052669 0.3054966 0.27239 -0.018086761 -0.1309425 0.0039178454 -0.15134431 -0.22158334 -0.08692456 0.17913148 0.124874085 -0.37503275 0.25252205 0.0502371 0.015484101 -0.010462997 0.1890742 -0.1638839 0.039372724 0.08476356 0.21015109 -0.023546422 -0.043150034 0.13564742 -0.11147503 0.10954405 0.03887357 0.10352993 -0.1246421 -0.19732887 -0.023528652 0.06251068 -0.12403909 -0.22548729 -0.0002206141 0.033881046 -0.032795385 -0.053297166 0.021016367 0.35150522 -0.15259497 0.12447219 -0.022619145 0.14083973 0.31126314 0.3171787 0.2702833 0.12798493 0.14844364 0.22373308 -0.000779336 0.095130235 0.08041627 0.11801677 4.209117e-05 0.18831015 -0.063458525 -0.053381797 0.019753689 -0.16727614 -0.06541077 -0.05933882 0.112370834 -0.048112668 0.18048039 -0.016835777 -0.24803828 -0.17075482 -0.15983841 -0.07082017 -0.072834365 0.034201957 -0.0007485185 0.09233523 0.21173453 0.11106649 -0.022089742 -0.03289953 0.11095242 0.07828522 -0.0779928 -0.048231397 0.19138414 -0.04112316 0.17558646 -0.19682682 -0.04503866 -0.34571216 -0.12087353 0.08679436 0.23360616 0.063804954 0.09387793 -0.00085525267 -0.04282712 0.113974646 -0.2352143 -0.075835384
66646.png -0.26843917 0.014664357 0.41220653 -0.4074208 0.20386185 0.08700833 -0.019097365 0.09953055 0.048590444 0.100681886 0.12825586 0.033823524 -0.30821136 0.037988544 0.08334408 -0.29233095 0.07549014 -0.1847071 0.09403937 -0.052866492 0.07169744 -0.144177 -0.066367865 0.07907933 0.14186627 0.040218864 0.19235873 0.055726714 -0.102432206 -0.24039 0.16924788 0.07921939 0.032661814 0.036999192 -0.20665608 -0.21372995 0.026637815 -0.17816657 -0.069922276 -0.005475209 -0.2680346 -0.47922957 0.06523662 -0.09712183 0.18341559 -0.035236828 0.058479685 -0.011721689 -0.05189264 -0.15423827 0.03862038 -0.25135842 -0.017438747 -0.5196742 0.035584737 0.2773289 0.16504993 -0.26181418 0.07311569 -0.3445986 -0.16635671 -0.16289647 0.012228416 0.102574036 -0.36807555 0.105606385 -0.04230542 -0.18436237 0.010272272 0.07846135 0.026272843 0.54605985 0.18436968 0.15534301 0.24408568 -0.10571439 0.02710882 0.29426506 0.326459 -0.100345984 0.0128574595 0.41352266 -0.09015926 -0.036026813 -0.5630257 -0.017970862 0.54298943 -0.30589184 0.17402993 -0.10262349 0.121857874 -0.21749124 0.19937728 -0.0069856276 -0.105044834 0.21829541 0.33317682 -0.15680787 -0.08251143 -0.016632508 -0.064602055 0.02958356 -0.1520232 0.01363874 0.0067874934 -0.0601474 -0.25167176 0.13453817 -0.13068865 -0.20583741 -0.426659 0.13494363 -0.3487611 -0.2825114 0.028896526 0.013439209 -0.26910934 0.08841713 0.119171396 -0.052767813 0.04090876 -0.19546781 -0.35467052 -0.10682188 0.36977512 -0.06356606 0.2568925 0.21621266 0.29148278 0.33136883 -0.2136179 0.009138556 -0.122269176 0.054438733 0.08795415 -0.16325061 -0.20476405 -0.11943794 0.21503885 -0.2553595 0.059897702 0.16839927 -0.022185374 -0.35679504 -0.18589136 -0.20114031 -0.18656653 -0.5458566 -0.0076148007 0.007564903 0.04421645 -0.14258641 0.26910487 0.21021837 -0.26194268 0.11935152 0.11616726 0.022416541 -0.009700212 -0.011026279 0.11521321 -0.11685018 -0.04814713 -0.027325727 -0.21497804 0.27388406 -0.28342333 0.022709623 -0.24796116 0.07325995 -0.14250585 0.20563595 0.25529662 -0.24286202 -0.27477878 0.075397156 0.009629481 0.034304712 -0.62314856 0.02223324 -0.10872529 -0.5116807 0.11112323 -0.41963145 0.13108093 -0.17808959 0.21899539 0.23354384 -0.42932972 0.20988932 -0.16929854 -0.15961057 -0.23810622 0.36202636 -0.20148587 -0.11421188 0.0510228 -0.22159228 0.03477093 -0.20202929 0.25716597 -0.33843496 -0.17844982 0.29863513 0.15985641 0.13473071 -0.35998365 0.036697052 -0.17041928 0.14850838 0.01451291 -0.31652883 0.0074659027 -0.06105473 -0.063049614 -0.3436958 0.1433618 0.03927162 -0.21670258 0.14009048 -0.09890679 -0.02878799 -0.13282764 0.06371182 0.15209404 -0.15801948 -0.013699056 0.06711165 -0.10681398 -0.22031201 -0.04253644 -0.008303281 0.07311385 0.18584086 -0.2182556 -0.18968055 0.25610343 0.07329796 0.23232605 -0.10433399 -0.17790072 -0.0015527267 -0.005618663 -0.108335815 -0.32191217 0.3548656 0.09473641 0.67127764 -0.28162888 0.064600594 -0.04088844 0.03823712 0.19698662 -0.07603373 0.1860229 -0.26098588 0.15306543 -0.18070826 -0.0144641865 -0.3163552 -0.12428523 -0.08941295 0.019810671 -0.1907853 -0.092512004 0.41379917 -0.12128669 0.3357288 -0.047920104 0.22663899 0.054636765 0.27839085 -0.14420949 -0.1520474 -0.41202617 -0.28877956 0.30354252 0.40665066 -0.20273732 0.023149785 0.17416741 -0.1930487 -0.46301815 0.12681825 -0.04111055 -0.31246328 -0.024649214 -0.015883511 -0.51510274 0.055104323 -0.19328937 -0.12825704 -0.16477898 0.291646 0.1202724 -0.29336587 0.20190448 0.05017376 -0.40625313 -0.28590757 0.34586623 -0.12952083 -0.017570099 0.1412766 0.03683611 -0.25002915 -0.017484171 0.054601774 -0.18370962 -0.11941341 -0.05046282 0.09800791 0.2284959 -0.13577335 0.18751353 -0.076717615 -0.1273545 -0.014664239 0.22752924 -0.14782503 -0.115203425 -0.142368 -0.0071077594 0.08752169 -0.11105503 0.020770032 -0.011122684 -0.19514133 -0.061920792 0.0039737644 0.037077732 -0.30931515 -0.06446851 0.09033221 0.04914096 0.1076713 -0.112461865 -0.13147275 0.0853597 0.35003966 0.21840027 -0.17741404 0.37573597 0.15737896 -0.2707385 -0.043061506 0.037115414 0.3384998 -0.096872814 -0.35056162 0.26826847 -0.002928289 -0.06412607 -0.15749393 -0.22565956 -0.027367996 -0.38391936 0.08015694 0.005404711 -0.021454394 0.24271663 -0.21697608 -0.29007578 0.1434061 0.34019116 -0.2800119 -0.0723762 -0.06947169 0.36503622 -0.2876165 0.09102703 -0.19787854 -0.0359085 0.022455117 -0.010960375 0.10414579 0.18182294 -0.104778096 0.28398255 -0.3014256 0.33753204 0.10237599 0.09707031 0.23440959 0.13597187 0.2166285 0.00835621 0.22524287 0.07204208 -0.13924965 -0.18691322 0.21657887 0.10194757 0.21274188 0.07333151 -0.3073902 -0.14953795 -0.2149338 -0.14603533 0.025704315 -0.19000676 -0.1945132 -0.20426057 0.07258101 0.06447716 -0.24232091 0.0030826814 0.37315103 0.03922518 -0.110255264 0.16929242 -0.11154144 -0.1379092 0.22119397 -0.09455409 0.34390306 0.09409796 -0.11901278 -0.052162554 -0.08412497 -0.20468798 -0.14516924 0.6899085 -0.11465938 0.19190949 0.040763937 -0.08677741 -0.11888095 0.2208472 0.66804445 0.26782265 -0.1935341 0.28353304 0.13426103 -0.120187014 -0.28623372 0.19777201 -0.1423593 -0.057958696 0.21582703 0.026312267 0.20097978 -0.20126404 0.0038200996 -0.101090655 0.04612335 0.082528844 -0.026566677 -0.046294305 0.21846619 0.26943102 0.061071813 -0.25403285 0.16305967 0.040189974 -0.2755696 0.4191989 -0.20864595 0.082754515 -0.12950419 0.28060442 -0.06431038 0.21265914 0.41620368 0.22035535 -0.17890935 -0.2934838 -0.03943618 0.14475821 0.1486315 -0.03013633 0.08669711 0.29091308 -0.044496685 0.03344482 0.07075518 -0.4654356 0.33931088 0.24912384 -0.12080874 -0.0073952214 -0.010996582 -0.08864809 0.06335721 -0.22871603 0.04192578 -0.30784068 0.03884578 -0.25249067 0.47309226 -0.15084201 0.021490756 0.08497648 0.2553247 0.055368364 0.37538114 -0.31267893 0.25991148 0.071908504 -0.25523952 0.18370523 0.0022992203 0.29772857 -0.40756345 -0.30046177 0.42373893 -0.0048764097 -0.13212468 0.12901501 0.03817435 -0.16893661 -0.16479361
69894.png 0.031139344 -0.12678228 0.07450891 -0.337882 0.33006322 0.14272843 -0.053356465 -0.08043636 0.112048864 -0.2098047 -0.2842479 -0.0074769715 -0.19345298 -0.07630958 0.24050511 0.08324683 -0.16469981 0.057761163 0.336025 -0.029737694 -0.19373985 -0.10860949 -0.07858928 -0.023781842 0.2705294 -0.38934857 0.07083201 0.008232776 -0.18788983 -0.0386118 0.0069777016 0.019540736 0.11137004 -0.0014477388 -0.18379232 -0.2105714 0.08556272 0.09079239 0.04935112 -0.2241874 -0.049557827 -0.057412613 -0.14527842 -0.20771746 0.018830087 0.28505522 -0.10594132 0.41844207 0.17886096 -0.021263853 0.036368962 -0.09602417 0.24894035 -0.29608914 -0.16840822 -0.021368083 0.024437904 0.06948245 0.25052586 -0.07263646 -0.045047168 0.37652057 0.14426342 -0.2905789 -0.14582875 0.21207024 -0.037553437 -0.28105286 0.021920407 0.27176315 -0.13103913 0.053028993 0.08452398 -0.21884438 0.29705936 0.08196527 0.12172284 0.04398957 0.28227022 0.13280205 -0.14561659 -0.16736558 0.1888688 0.047309544 -0.03541597 -0.363414 0.051299646 -0.0014540789 0.12437366 0.17244713 -0.25792578 0.014514633 0.09282199 0.21302104 0.02556992 0.43857235 0.14319411 0.08707319 0.20884985 -0.11349464 -0.09178938 0.107357256 -0.30854356 -0.07423459 -0.034363773 -0.070200525 -0.22288977 0.23215173 -0.1905316 0.012308917 -0.025525384 0.057057813 -0.24462181 -0.20589125 -0.005334728 -0.15220006 -0.17748827 0.010287758 0.02780499 -0.046570633 -0.07427444 0.20670854 0.014591118 0.14912103 -0.06824344 0.20455985 0.1684009 -0.2063643 0.227002 0.27442017 -0.31571764 0.008331039 0.049888656 -0.1087261 0.11254035 -0.28672165 -0.106101945 0.079899415 -0.033999745 0.06497045 0.03833733 -0.075762786 0.16511303 -0.09531618 0.15826969 -0.1191749 0.20334819 0.06411221 0.17752515 0.06447374 0.19012238 -0.08157919 -0.11197476 0.13444437 -0.09795078 0.14531228 -0.113257475 -0.00248729 -0.15143411 -0.094030455 -0.12875389 0.4402088 -0.15832122 -0.3268709 -0.17266282 -0.20419595 0.17216325 -0.34108707 -0.06842762 -0.1502503 0.104478024 0.34577426 -0.04563154 -0.26301688 -0.048233412 -0.045615464 0.33265832 0.090341486 -0.2370246 0.02764271 -0.16328932 0.13776065 0.06979048 -0.054851696 -0.17157437 0.15665051 0.09516195 0.460101 -0.29642364 -0.024304848 -0.031886913 -0.062329024 0.06698647 0.030508216 -0.11563148 0.044673067 0.12344528 -0.26714954 0.002385629 0.03648201 0.14406486 0.053887796 0.18188226 0.08350292 0.0022619325 0.2656842 -0.029547151 -0.27786276 0.09213188 0.10255863 0.0548569 -0.0018075893 0.06008727 -0.10692604 -0.23460118 0.0063552647 0.072294675 -0.02844947 -0.14446992 0.056122597 -0.061278403 -0.25485688 0.07018839 0.106415585 -0.049660765 -0.00043724346 -0.22804533 0.1331125 -0.34951767 -0.17589204 0.29390642 0.17146346 0.028684152 0.2574025 -0.4460093 -0.08050273 0.20196345 -0.11052173 -0.024397817 0.28266236 -0.5051557 -0.28254154 -0.06455815 -0.02393737 -0.18985996 -0.0049728462 0.22057076 0.1972407 -0.30086368 -0.14780608 0.19025105 0.05101163 0.0579383 -0.033925828 0.22463721 0.16740483 0.17989445 0.015630987 0.036445435 0.1895494 -0.23233351 -0.014904484 0.4266473 0.21176931 -0.0009846609 0.04383562 -0.30068573 -0.04081078 -0.16363186 -0.06938903 -0.017991776 0.11672884 -0.0019944487 -0.09475026 -0.42817515 -0.19039486 0.026142016 0.13018444 -0.22261368 0.27017584 0.30901182 0.27646482 -0.24393411 0.0005808228 0.05495006 -0.06582135 0.10780741 0.017137846 -0.42992917 -0.11010018 0.11361184 0.023913706 -0.18517745 0.3297763 0.12030805 0.10573215 -0.19914113 -0.093132 -0.08548739 -0.33486825 0.22386406 0.015351461 -0.104103014 0.09207083 -0.11703081 0.2741307 -0.11176665 0.016206717 0.14167963 0.07000994 0.030441888 -0.016537774 0.0027505872 -0.0011575714 -0.049146686 -0.04250265 0.06911566 -0.035363078 0.0015569607 -0.08381548 -0.17720847 0.22437142 -0.14176743 0.20740177 -0.09929176 0.34366384 -0.20990576 0.034762193 0.4756316 0.22027192 -0.114119254 -0.3115435 0.121629454 0.020976527 -0.18324552 -0.1880628 -0.14708641 0.22885445 0.10326713 -0.087926574 0.21928878 0.14487876 0.038477886 0.10261155 -0.11761501 0.061326686 -0.01442163 0.2164508 -0.0012132556 0.026641155 -0.014124652 -0.09089844 -0.045092124 0.17211287 0.11069325 -0.30707225 -0.20622331 -0.011643469 -0.004924233 -0.115146115 0.0083638355 -0.083746426 0.029455055 0.05987573 0.12710015 0.08411578 0.0686235 0.037896562 -0.06743858 -0.012978431 0.1255332 -0.087378494 0.056261435 0.006107898 0.054435384 -0.045449544 -0.3033576 -0.2025729 0.078995205 0.031164836 -0.13892588 -0.09766801 0.21558355 0.19264801 0.0151055 -0.2664865 -0.25477186 0.02500141 0.04478829 -0.07141632 -0.11146342 0.26021877 -0.07041323 -0.14514413 -0.010114829 -0.16482939 0.08940325 0.013350603 -0.07690883 0.22349136 -0.088407315 -0.16424806 -0.016279459 0.0705835 0.050772112 0.10313699 0.014946213 0.30713707 -0.2578941 0.19238126 0.095443554 -0.34114608 -0.08016328 -0.08186738 -0.050310813 0.11004923 0.3180482 0.14433825 0.21044381 -0.09884066 -0.0030151631 -0.073083855 0.13084425 0.13269891 0.1420417 -0.12986688 0.047027577 -0.09026306 0.21684675 -0.053497482 0.1534562 -0.29586977 -0.09211927 0.08776542 0.24696018 -0.1236111 0.42457074 -0.1971441 0.14697443 -0.16454542 -0.19951557 0.120362744 -0.03581911 -0.05915081 -0.3244206 -0.060477227 0.080677874 -0.12728882 0.048016652 0.28709224 -0.22653407 0.15371779 -0.15057872 0.03666015 0.19081731 -0.38275418 0.07183653 -0.048469197 0.06217973 -0.21947238 0.06637945 0.0020532296 -0.169681 -0.016989967 -0.117281474 -0.0476099 -0.25556943 0.06216928 0.24764384 -0.17017668 0.14931089 0.024501221 0.2891102 0.03306062 -0.14547494 0.2623299 0.13123374 0.4262274 0.117667206 -0.11353867 0.18243183 -0.11326099 0.20314217 0.073730856 0.12539828 0.081313685 -0.28671512 -0.07882215 -0.39347517 0.20673443 0.15785936 -0.08125602 -0.02705326 -0.19911785 0.19797911 0.09677063 -0.03900263 0.06703549 0.054511942 -0.28955004 0.32393587 0.2502405 -0.20082954 -0.002253343 0.009307746 0.059465066 0.17921998 -0.2197152 -0.015155332 -0.09378086 0.15681113 -0.21671617
69903.png -0.3730361 0.08478676 0.01618111 0.07120925 -0.104091264 0.094402745 0.23562081 -0.49002075 -0.017460575 0.30920976 -0.24604577 0.13628326 0.08093881 -0.019921808 0.32682347 -0.33801976 -0.31379122 0.035968732 0.039002784 0.12050775 -0.57984954 -0.11208067 -0.011223562 -0.31578413 0.030510565 -0.06655371 -0.21483837 0.27299562 -0.12757535 -0.37637004 0.35127077 -0.094873294 0.049140908 -0.100643665 0.0478069 -0.1524473 0.3661325 0.19361934 -0.520001 0.16940725 -0.123212345 0.20733444 0.063406184 -0.26399422 -0.1076779 0.16417694 0.30471128 -0.2749094 -0.106623955 -0.044538323 -0.11284198 -0.037133507 -0.10555041 -0.09912881 0.10099362 -0.04087583 0.117268525 0.037482724 -0.008005476 0.13636805 0.36131462 0.09709962 -0.072112575 -0.07082091 0.09764176 0.12331887 -0.227474 -0.15076166 -0.0634186 -0.29823712 -0.10467468 -0.09523865 0.36474895 -0.1900234 0.0035081964 -0.08025301 0.0850618 0.08046271 -0.22402693 -0.041084457 0.17857715 -0.04236151 -0.27026078 -0.34610206 0.15258901 0.47933167 -0.31282023 0.028715992 -0.006493568 0.23019247 0.103340626 0.22675262 -0.010247202 -0.26450977 0.021693362 0.04892319 -0.023101756 0.07208896 -0.0082408525 -0.028351488 0.08908999 -0.26486355 -0.08470154 0.12206831 0.14682962 -0.24877888 -0.20072547 0.35487643 -0.30750674 -0.26179463 0.023291657 0.01092656 0.03126875 -0.23949902 0.32997167 0.27633822 0.17717119 -0.10294383 0.3351738 0.10384759 -0.03328822 0.13077514 -0.131762 -0.099946745 -0.0683832 0.50125617 -0.004337274 -0.3619258 0.28712922 -0.054327354 -0.17168243 0.16171306 0.2288577 0.054901797 0.14995764 -0.057806972 0.23107345 0.17066121 0.19402343 0.113622144 0.06547221 -0.53865457 0.22274221 0.048463434 0.62634224 -0.012531215 0.6212873 0.010972478 -0.1315813 -0.077928185 0.022560883 0.021423727 -0.12561354 -0.026714819 -0.025853766 0.14601742 0.14099237 -0.015679441 0.08773823 0.16980244 0.10899812 -0.053740196 0.32775533 -0.17629002 0.3905357 0.31989336 0.09778468 -0.013220187 0.25145957 0.009941999 0.09431902 -0.036838304 0.06490216 0.005718338 -0.15204954 0.11848624 -0.27563128 0.32678562 0.14944048 0.011798494 -0.040907525 -0.14933932 -0.10656596 -0.40016478 -0.31147018 0.02616552 -0.070415445 0.15861942 -0.0367812 0.055296652 0.042302325 -0.026713466 -0.0067836377 0.32183865 0.24601425 -0.11187154 -0.16761516 -0.11440472 -0.20146485 0.085692525 -0.27196234 -0.06979271 -0.51667315 -0.19260676 -0.119958125 0.2009323 0.005058841 -0.5914762 -0.01822782 -0.12733965 -0.08870432 -0.08596913 -0.17193405 -0.22306487 0.064542964 0.23998971 -0.21973817 -0.06849755 0.21881773 0.070622124 0.2238506 0.0644243 0.1315674 -0.21734963 0.10364684 -0.03253599 -0.21524757 -0.20656154 -0.17323887 -0.06424417 -0.06997352 -0.29139084 0.34892452 0.2643792 -0.25336203 0.1397942 -0.2055433 0.08519207 -0.23322326 -0.121899694 -0.16657895 -0.08498132 -0.049646053 0.028878035 -0.68077034 -0.17061488 0.18519536 0.20433088 0.014542793 -0.027834196 -0.12152883 0.0012924611 0.0955631 -0.10576259 0.17639482 0.16079916 0.023625825 0.003489329 -0.07134589 0.11234346 -0.17928001 0.23328336 -0.13295339 -0.33098593 0.1443363 -0.023717731 -0.1110605 0.06473619 0.05955059 0.392454 -0.0065404535 0.3701988 -0.066364236 0.13584536 0.31331578 0.101125516 0.15589876 -0.21373084 0.30956832 0.075207606 0.044393897 -0.014424443 -0.20878978 0.06899546 0.16867974 0.010431257 0.17911933 0.14191814 0.15181878 0.321729 -0.20243098 0.15228416 0.0018413581 0.08350192 -0.08573802 0.054129906 -0.20616385 -0.18025136 0.023034746 -0.16181849 0.21797138 0.18466672 0.03990919 0.050567593 -0.13226248 0.44079393 0.111044884 -0.15294276 -0.15223119 -0.22751503 0.33513865 -0.05064127 0.2042203 0.13501282 0.04595286 0.0791769 -0.11740642 0.27808368 -0.08456301 -0.16747232 0.000991866 0.06992136 0.11148775 0.3557866 0.03858413 0.21268605 -0.13906984 0.083420396 0.18266942 -0.12711743 0.20010002 -0.37406686 -0.13968985 0.12942833 0.31733647 -0.08829469 0.08303435 0.2188057 0.21129021 -0.38752422 0.19302452 -0.05690029 0.04679731 0.0034044778 -0.11940946 -0.106390305 -0.22496611 -0.14689688 -0.006549156 0.2622565 -0.027000058 0.13487835 0.054677483 -0.07290921 -0.16363098 -0.18390666 0.081855044 0.29398635 0.020421464 0.058955707 -0.31330228 0.038993053 0.20932329 -0.09533595 0.10491826 0.3999656 0.33891276 -0.0015262313 -0.065250315 -0.0060600922 -0.019986195 0.3584501 0.076958336 0.050006747 -0.26046833 -0.14222284 -0.0556183 0.3672153 0.00047740422 -0.04105681 -0.16476355 -0.021935832 -0.111626655 0.1874384 -0.09903432 -0.2643856 -0.27843374 0.28277713 0.116699845 0.13739605 0.025944788 -0.11089943 -0.16357672 -0.1534177 0.12413306 -0.116963975 -0.28626722 -0.33772817 0.048054613 0.15205634 -0.21927583 -0.5523491 -0.06361293 -0.12123293 0.030995205 -0.21421736 -0.076789364 0.27043182 0.07223769 -0.03288476 -0.029891372 -0.15395433 0.039319713 0.34610534 0.2570633 -0.42099148 -0.13636139 0.14590096 0.02290343 -0.18579821 0.15760374 -0.008102286 0.2005185 -0.011963245 0.08065118 0.073144 -0.21665117 -0.5660002 0.28952935 0.31947458 0.08660001 -0.09249475 -0.044569723 0.1399464 0.025356375 -0.09143425 0.34103668 -0.24126168 -0.2978331 0.071661875 0.13833107 0.23863873 0.111633435 0.088987164 -0.014805442 -0.2009522 0.15091711 0.033814605 -0.24377967 0.21612942 -0.045819595 0.18292728 -0.113484345 -0.032054666 -0.30409813 -0.11239495 0.17272294 0.01756147 0.03740477 -0.047997404 0.14420244 -0.044627614 0.21994755 0.44089958 -0.16298401 0.09303159 -0.0108245965 0.04368532 0.088531725 0.17979811 0.07126291 -0.09983641 0.29523504 -0.07578291 -0.23659678 0.14517066 -0.20857903 0.34095675 -0.17871495 -0.022902012 0.6079512 0.4555561 -0.048802745 -0.1185567 -0.077576526 -0.07700731 -0.33130163 0.1450913 -0.35910824 0.10354975 -0.13518599 0.27232352 0.4299121 -0.15865126 -0.15906198 -0.14137432 0.12366668 0.090874694 -0.27289227 0.09139728 0.14993481 0.20603792 -0.09565274 0.42260814 0.27250534 0.061311986 -0.16564095 -0.033349004 0.08083432 0.050559472 0.1229122 -0.06661549
69921.png -0.027515605 -0.2556789 0.09885678 -0.120300926 0.15236951 -0.07170874 -0.07115122 0.003623523 0.17912519 -0.17279075 0.05752198 -0.1464585 -0.078117795 -0.06789323 -0.19248272 -0.04842345 -0.38373527 0.6876207 0.16149667 -0.11736745 -0.13598955 -0.10076531 0.049516715 -0.013813706 0.06937956 0.029987624 -0.25236553 0.19246244 -0.019722972 -0.12556821 -0.11946845 -0.1293992 -0.37817928 -0.16996628 -0.22129682 -0.007602974 0.15912013 0.15674508 -0.40991148 0.009861559 0.20689903 0.09494488 -0.22893402 3.9474427e-05 -0.19689173 0.0091977 -0.031901583 -0.05324726 0.032442857 -0.101412825 -0.09570939 -0.06451508 -0.028992292 -0.281048 0.1188133 -0.23145486 0.012049275 -0.17036189 0.19870774 -0.04042122 -0.19612844 0.021814896 0.018043991 -0.045291886 -0.046145745 -0.08273119 -0.12888482 -0.040317502 -0.13515261 0.3843264 -0.117030285 0.029839322 -0.13016908 0.21551667 0.039097372 -0.066899195 0.39441046 0.010974251 0.33167848 0.070670016 0.070455045 0.13540442 0.0842372 0.20255908 0.09179064 0.12619224 0.025467306 -0.041412264 0.16966939 0.2655216 0.052552048 -0.0042851083 -0.16351326 -0.088734925 0.036525417 0.35173094 -0.11535731 0.0046072653 -0.13843873 0.10251689 0.103637606 0.039932348 -0.30340192 0.14930375 0.0021167714 -0.019328406 -0.10995423 -0.024026189 0.04218285 0.123257525 0.12719917 0.36129984 -0.15237437 -0.2474928 -0.19495803 -0.033170726 -0.11253923 0.06682541 -0.09086045 -0.12782593 -0.12463754 0.20157704 -0.07038581 0.38752952 -0.19446397 0.14385554 -0.06976173 0.039822057 0.21992472 0.19868374 -0.14957067 0.28848514 -0.07620268 0.075863004 -0.09276252 0.071704276 0.21528052 -0.10877245 -0.35930297 -0.10711273 0.1952331 -0.19026221 0.07354027 -0.11711285 0.14955206 -0.048526514 -0.19174002 0.21721286 -0.16234154 -0.008374185 0.40924698 0.015346504 -0.061760284 0.0053969803 0.15813762 0.37837568 0.064703025 0.06799845 -0.35244083 -0.033896163 -0.22226132 -0.06881953 -0.16878417 -0.043535993 -0.13496241 0.38839883 0.09288013 -0.1995571 -0.00025369265 0.07619477 0.16846506 0.2050404 -0.099386126 -0.18777275 0.014268707 -0.37137273 0.029606082 0.04890153 -0.06554329 -0.024790866 0.02382587 0.12568845 0.24071443 -0.10855197 -0.040791247 0.18499196 -0.029204192 0.3585153 -0.32710883 -0.26944777 0.22503436 0.014211026 0.11335526 0.29374415 0.12793311 -0.056957748 0.052501436 -0.09534862 0.056089584 -0.17175467 -0.050909173 -0.14831148 0.0312108 0.083579585 -0.111371316 0.19471999 -0.1300964 0.040673222 -0.18264242 -0.02828268 -0.16128428 -0.10801421 0.08444752 -0.05805191 0.121486776 -0.11544608 0.018587159 0.3514384 0.1264197 0.13435493 -0.025956511 -0.18587965 -0.17467748 0.10876268 0.12690891 -0.16709003 -0.032761145 -0.08851237 -0.42409822 -0.1512036 -0.11583732 0.026124313 -0.0028530892 0.14196396 -0.22353895 0.0791804 0.02224681 0.055224363 -0.074015856 0.38797688 0.04187001 0.19662578 -0.17142391 -0.022624413 0.4078734 0.12586226 0.0240889 0.047505245 -0.16609122 -0.075527966 0.13645703 -0.15724687 -0.27967444 0.1444182 0.0421315 0.2453358 -0.0023440968 -0.33702278 0.2562665 -0.25488508 0.054341484 0.057794094 0.27895427 0.024759166 0.07926467 0.09914749 0.07999659 -0.08538809 -0.09173227 0.010514647 0.028646147 -0.041679543 0.08993189 0.18667294 -0.12282921 -0.22223282 0.104829274 0.21091332 -0.06616578 -0.040754206 -0.054616977 0.019257367 -0.118160024 0.024330808 0.01751013 -0.21548247 -0.012571435 -0.016189566 0.027676638 -0.12200163 0.20347966 -0.17035016 -0.19295375 -0.03127666 -0.011340052 -0.06995403 -0.09713475 -0.03478485 0.225499 -0.06178368 -0.1899788 -0.34827092 0.09829406 -0.053892184 -0.17957881 0.019688016 -0.06841309 0.10913264 -0.07971308 0.14807245 0.18906371 -0.039835017 0.039031755 -0.2563726 0.19164914 -0.177434 0.03635404 -0.04102298 -0.111739494 0.02439328 0.12134198 0.26648527 -0.18179981 0.057497807 -0.14867866 0.29097834 -0.24328625 0.060886335 0.109808534 0.03630971 0.15317182 -0.18196572 -0.28987926 0.07913884 -0.1166926 -0.053906772 0.13022631 0.13645099 -0.116371796 0.15023322 -0.042445563 0.10415712 -0.041958496 0.16470891 0.046850976 0.20767164 0.10491023 -0.013769281 0.20737916 0.03303028 0.13423446 0.04675506 0.11002952 -0.10159945 0.06554226 0.007989545 -0.1892986 0.009737436 0.21271126 -0.14326426 -0.03347224 -0.20883408 0.033605095 0.08272525 -0.09130701 -0.28270507 -0.018150024 0.042008054 0.20661233 0.16438544 0.10282399 0.25852454 0.04868223 0.19168438 -0.11747626 0.22425766 -0.08624927 -0.11967926 0.19424318 -0.27108744 0.092411265 -0.19594511 0.07116127 0.01081656 0.18462965 -0.24006175 -0.16495644 0.16066833 -0.03944297 -0.114825025 -0.028939595 -0.12397535 0.18380743 0.07821244 -0.071769044 -0.040807176 0.12425051 0.13643126 0.30594748 0.024985002 0.06878454 -0.2626004 -0.17738861 0.09931143 0.12115849 0.021564096 0.20130606 -0.0090413885 -0.026760334 0.056571156 -0.30177692 -0.026992112 0.011946047 0.051280383 0.040880397 -0.032329135 0.101802155 -0.20494656 0.14081676 -0.22047028 -0.12569039 0.35715234 -0.2731488 -0.15526289 0.112371795 0.15256712 -0.14452669 0.041118067 0.07129972 -0.29803124 0.11708487 0.032628193 -0.0561748 -0.09320253 0.16271001 0.074714355 0.23996176 -0.06018235 -0.23763472 -0.11982202 -0.062010266 -0.24330711 -0.060377214 0.21614882 -0.08912948 -0.13116565 -0.013385885 -0.28774032 -0.06432282 0.08839129 -0.20319313 -0.15260836 -0.12651768 0.056484405 0.24645154 0.083268784 -0.2528482 -0.030814715 0.0060724095 0.24668428 0.12673293 -0.09044144 0.1436191 0.079631165 0.1708691 0.027041225 0.1342477 0.1737106 -0.05452561 0.039451506 -0.06644227 0.024934188 0.22684722 -0.4193586 0.09898834 -0.031107277 -0.26044104 0.14286406 0.12769052 -0.10671628 -0.07078222 -0.108093165 0.070892766 -0.093428895 0.4364983 0.21131882 -0.026478773 0.115467906 -0.10303085 0.19957133 -0.032519877 -0.016928023 -0.3072215 -0.15182132 -0.13883431 -0.083056636 0.029412162 -0.09261078 -0.12202692 -0.15772986 0.20978636 0.08896317 0.17084157 -0.074498944 0.1366625 -0.12242296 0.36947894 0.14669706 0.023128612 0.1334697 0.16093752 -0.27589187
69941.png -0.06856005 0.005614909 0.09781805 -0.14937921 0.012716254 -0.043825243 0.12220139 -0.13083266 0.28420427 0.20220718 0.16787173 -0.21375586 -0.1352798 0.06863541 -0.4473752 -0.22291432 -0.6354987 0.3240005 -0.0051031807 -0.0770196 -0.11643451 -0.20312917 0.14561601 0.2235541 0.12700629 -0.341647 -0.08179492 0.053993925 -0.2337531 0.17988363 0.101055704 0.104367584 0.21192084 -0.16402248 -0.23584431 -0.094788946 0.052908465 0.42038256 0.073006265 -0.29675967 0.2966416 -0.081715375 -0.029411068 -0.1719001 -0.12475283 0.089017086 -0.28060657 -0.05768197 0.39452982 -0.105865546 -0.03411192 -0.021714373 -0.2113592 -0.07533991 0.06544212 0.073003046 0.044035576 -0.10627341 0.33199808 -0.027100962 -0.09646848 -0.17346132 0.2539285 0.3303293 0.3084791 0.0027925817 -0.04624649 0.35521778 -0.16344258 0.06597144 -0.14842184 0.0014693114 0.026804479 -0.066493735 0.43513474 -0.0077291247 -0.019183205 0.40934715 -0.15352845 -0.12239824 -0.12426305 -0.2883928 0.20700367 -0.19425209 -0.14763638 -0.31670326 0.1350201 -0.15386592 -0.0151345655 0.22864343 -0.06431226 -0.023906665 -0.18777485 0.33240384 -0.20431235 -0.1244589 0.0052005765 0.21136776 0.340539 -0.07106845 0.039980013 0.15409909 0.10806041 0.23524642 -0.09462583 -0.015076749 -0.40428144 0.18701176 -0.28944942 -0.23722693 -0.16400273 -0.0020313633 -0.14003077 0.104049325 -0.16396432 -0.02694253 0.11029466 0.15645963 -0.060486864 -0.13368767 -0.09686429 0.06817703 0.2276779 -0.33821732 0.08716605 -0.045022618 -0.13509957 -0.23834682 0.06253252 0.12568434 -0.278066 0.07737426 -0.2730823 0.24948363 0.056775596 -0.1293781 0.10875484 0.061611105 0.20677601 0.16173887 0.12168966 0.069306545 0.43732652 -0.13828158 0.23889342 -0.014618544 0.062092017 -0.084126756 0.089801826 0.0068040723 0.34687394 0.0011284334 0.08645831 -0.023535555 -0.24176767 -0.15706831 -0.12819624 0.13621832 -0.13982151 -0.22835495 -0.280923 0.099499516 -0.1687167 -0.117560074 0.025832895 -0.06455806 0.15002434 -0.18627812 -0.015010209 -0.014088291 -0.050421294 0.16645175 -0.1236581 0.14623459 -0.2674919 0.012069202 0.015737824 0.09735541 -0.22906056 0.06674469 -0.19217184 -0.05559005 0.10765355 -0.3293078 -0.026469897 -0.14873654 0.2963601 -0.1587306 -0.32646018 -0.183067 0.00741598 0.05304161 0.2659432 -0.42562416 -0.13395832 -0.14627907 0.21530695 -0.47902003 0.0020312893 -0.023470985 0.31540105 0.17071788 -0.28825742 0.0041698976 -0.01240397 -0.08710448 0.073419504 -0.13320874 -0.08085439 -0.0009850367 0.30922133 0.036596034 0.08474981 -0.09452993 0.3513385 -0.34974572 -0.2775741 0.3215299 0.08453755 -0.4088469 -0.33462745 -0.19789767 -0.014834364 0.07815502 -0.058039933 -0.27396527 -0.45344687 0.25262105 -0.06978166 -0.08399122 0.07179002 -0.05851727 -0.1000416 0.28138512 -0.10803747 -0.19359267 0.32932857 -0.08931644 -0.32754567 -0.05727223 0.27111644 0.033199094 0.059640203 -0.09082232 0.17555188 -0.0997965 0.23884623 -0.062085364 0.32357028 0.1093731 0.36681774 -0.15040284 0.27726287 0.19396599 0.19795878 0.10975672 0.26595116 -0.19652507 0.181838 -0.13167852 -0.041536015 0.28221062 0.11709604 -0.03175513 -0.11145388 0.20500581 -0.038528927 -0.06534954 0.08332714 -0.24044463 -0.04777732 -0.15729387 -0.28653118 0.17538966 -0.13080569 0.005265623 0.20690848 -0.19614685 -0.28814125 0.37314758 0.064181484 0.1903444 -0.09997473 0.080995604 -0.027644487 0.004490214 0.43123275 0.09288807 -0.29199684 0.18566951 0.053593405 0.51497096 -0.32748333 0.29010013 0.19413859 0.17920737 0.091368325 0.081012644 0.10235678 -0.42041314 0.106226385 0.011504432 -0.14766224 0.1581143 -0.23634912 0.08435738 -0.21893072 -0.12573321 -0.16522937 -0.10770576 -0.010634151 -0.07110554 -0.19917727 -0.13192776 0.32030126 -0.015352901 0.009821301 0.084788 -0.02535903 -0.11182529 0.10185249 -0.03919322 -0.22268641 0.20549394 -0.09553408 0.06225487 -0.12257985 0.0069705793 -0.11327393 0.05425369 0.21427478 0.06309323 -0.26193663 -0.18334669 0.21816064 -0.15776773 0.40455502 0.122115105 -0.0136019075 -0.04699895 -0.2508773 -0.0583432 -0.061048917 0.15276857 0.0895974 -0.042234004 -0.26626897 -0.020425623 0.28825817 0.035246484 0.13047671 0.00087228976 0.17137471 -0.012235297 0.05028842 0.16069578 -0.008052906 0.14926606 0.1494177 0.0050895824 -0.3078425 0.032133088 0.14092708 -0.1182148 -0.22633754 0.027017925 0.15602286 0.1523544 -0.2016771 0.13025837 -0.09732298 0.1388189 -0.11311792 -0.018581066 0.14907444 0.0574961 0.20986344 -0.3520263 0.13055979 -0.10478046 -0.08532778 -0.10035526 0.12637495 0.23918444 0.062217902 -0.3532899 0.11364248 0.16590483 -0.32890174 -0.17205684 -0.15459071 0.007896023 0.4245667 0.14337535 -0.026432382 -0.085224226 -0.11603234 0.21136807 0.07600006 -0.14213751 0.08257354 0.23550835 0.34754997 0.21220231 -0.06234724 0.049807712 0.4491995 -0.2183044 -0.1432792 0.036692906 0.027030097 -0.1211911 0.028157385 0.0358331 0.16163485 -0.06625417 -0.039354827 -0.34097037 0.303372 -0.25943077 0.19765623 0.3372098 -0.011939654 -0.064397514 0.086482994 -0.04986418 0.08334849 -0.26917756 0.0499805 0.28312472 0.14845821 -0.2542537 -0.14650396 -0.15661536 -0.13135597 0.042840593 0.22919226 -0.06844436 0.3014491 -0.14572178 -0.20842996 0.010360776 0.10020419 0.31639713 0.08051659 0.26673695 0.005465982 -0.003937969 -0.2043163 -0.0750056 -0.18005823 0.064588584 -0.26388803 0.38173595 -0.2071057 -0.14955835 -0.40403712 -0.051070582 -0.023076396 -0.23813398 -0.5485915 -0.28519684 -0.18460011 -0.20312169 0.30733237 -0.020236975 -0.032692015 0.2569119 0.06445289 0.067795284 0.12665409 -0.03219307 0.27985758 0.061650675 -0.2852121 0.21680473 -0.06070118 -0.12556247 0.291067 0.17554665 -0.052949823 -0.17539218 0.07163776 -0.09005125 -0.031974293 -0.3041898 0.14071667 0.08338108 -0.030599734 0.22516361 0.14744453 0.010576178 -0.04212901 -0.109065756 -0.12265783 0.22454791 0.017141657 0.15827778 -0.031366397 -0.17878823 -0.047020417 0.024463035 0.26982516 -0.04145302 0.081610814 0.0916185 0.20919462 0.077100046 0.059391756 -0.21563394 0.041668322 -0.03186925
69945.png 0.13629994 0.21031332 0.23342025 0.09244686 -0.024377804 0.050168954 -0.16415597 0.009604876 0.309789 0.100092866 0.117910974 0.017923422 -0.020065065 -0.07660588 -0.12984549 0.04561032 0.0654342 0.03744521 -0.10944048 -0.24183139 0.0019196591 0.085430086 0.008479693 -0.0042962558 0.0051085814 -0.077215545 -0.08958533 0.18640365 -0.23724054 0.042640004 0.20326686 -0.18885772 0.15757933 -0.10884071 0.16822775 -0.14769584 0.014447312 0.18278983 0.068454474 0.33501697 0.119867295 0.06115373 -0.06657178 0.10862325 0.06531899 0.13561426 -0.15898041 0.13261473 -0.08174157 -0.00025881894 -0.008952177 -0.051337685 0.0027046776 -0.32996082 0.26810563 0.055184953 -0.0126800975 -0.15943225 0.115754314 -0.04609134 0.091533445 -0.18318337 -0.04096337 -0.1991965 -0.13406555 -0.19031936 -0.010373145 -0.020209657 -0.07311464 0.03983287 0.060562246 -0.0058975327 -0.10969419 -0.14144978 0.20785743 0.17309055 -0.010069906 0.08807001 -0.01908217 -0.061824076 0.063609645 0.2587545 0.028326202 0.05796607 0.24025115 0.19205561 -0.035220195 0.12295002 0.1402552 -0.55487907 -0.204906 0.10177966 -0.061897103 -0.07755565 -0.28663054 0.28799468 0.14033198 -0.19682233 0.21952026 0.2500789 0.004667592 0.082805805 0.18859392 0.067810684 0.17313336 -0.17578189 -0.045152713 0.20952728 0.08727709 -0.012525747 -0.0716713 0.19821167 0.062106844 0.14261784 -0.06872583 0.06276644 0.06854721 0.11374419 0.17216484 0.10523661 0.3937506 -0.19542858 0.09383342 0.16544084 0.42901897 0.12011754 0.33541462 -0.06488512 -0.04884957 -0.023642424 0.03307714 -0.14550266 0.1340745 0.028495992 0.010237781 0.016848832 0.052305117 -0.029819194 -0.14780493 -0.11935123 -0.01798745 -0.06179575 -0.06979233 -0.07387024 0.049001202 -0.0030617574 -0.018111266 -0.14027265 0.1457775 -0.044982757 -0.010050588 0.18532518 -0.07859952 0.21131177 0.11642058 0.12780824 -0.16024734 -0.06714989 0.1315127 0.12912206 -0.21912575 0.14539379 0.051856413 -0.22977176 0.0054915543 0.16660249 -0.06473392 0.03372169 -0.08914894 0.13595325 -0.22772248 -0.044299882 -0.1768819 0.15948613 0.10665339 -0.08091593 0.23689613 -0.15457007 -0.08603519 -0.02974949 0.35211986 -0.06441754 -0.12956138 0.112695664 -0.014303456 -0.05699214 -0.10173043 0.01505337 0.012919008 0.0058335997 -0.07690202 0.22001494 0.031881057 -0.30390313 -0.13330153 0.25984204 -0.101372294 0.1840185 -0.05458148 -0.058041148 -0.0023272515 -0.25132638 0.38404542 -0.11343228 0.07143865 0.36308718 -0.18725286 -0.073453255 -0.04424959 -0.039254706 -0.25753373 -0.27452388 -0.120560326 -0.08973641 -0.19008231 -0.06148079 0.3415869 -0.042634737 0.14252533 -0.035884783 0.19048649 0.2085839 -0.18103445 0.16841762 0.0059965113 -0.002723553 -0.19471729 -0.05993716 0.046823557 -0.04133473 -0.07946247 -0.052254647 0.08310528 -0.05155813 0.28376827 -0.12785813 -0.027052028 -0.25649983 0.22686017 -0.07266203 0.27135137 -0.114045516 0.08706201 0.08014853 0.13714239 0.14356424 0.13984628 -0.032402787 -0.074068725 -0.06270274 -0.09984347 -0.1543456 -0.13664806 0.098947905 -0.097030915 -0.13854566 0.067418605 -0.07171249 -0.16952603 0.04652268 -0.15172546 0.03604075 -0.12771845 0.05658773 0.0085422965 0.17352311 -0.07168388 0.017550746 0.13050443 0.12202915 0.16418122 0.074965514 -0.13055515 -0.2507824 -0.28741795 -0.13974838 0.0554539 -0.112958364 -0.057476453 -0.004978852 -0.0740993 -0.27452576 -0.024108095 0.057950117 -0.012257807 -0.18483576 -0.10537852 0.069545925 -0.10348643 -0.1679518 0.06399601 -0.032096263 8.5003274e-05 0.30176193 0.10811276 0.20384783 -0.019330084 0.10805067 0.07620082 -0.02088288 -0.005485228 -0.09354636 -0.024545295 0.056867547 0.022776488 0.011150132 0.25314426 0.07479239 -0.08973949 -0.3614417 -0.22261219 -0.18266125 0.081541285 -0.020749036 -0.17008975 0.109207846 -0.13039029 -0.057093978 -0.0008943589 0.16126446 0.33243984 -0.24236956 -0.046563953 -0.0194778 -0.06898299 -0.10720522 0.25931114 -0.08222652 0.2511365 -0.09806057 -0.03689612 -0.00053510856 0.10755959 -0.031673275 0.2017134 -0.039728526 0.08689949 -0.17688756 -0.058071543 -0.20213127 0.0076081376 0.022109454 0.022978103 0.09245757 0.035941366 0.090167925 0.061108835 0.098910436 -0.002516289 -0.0017989258 0.1492642 -0.11870123 -0.29376563 -0.33773622 0.017236637 -0.2178103 -0.0030380655 0.11030207 0.034520574 0.17409791 0.03617704 0.20779867 0.19445062 -0.00025550765 0.18874033 0.12818862 0.16785121 -0.20648603 -0.104154095 -0.0038886804 0.045458127 -0.27786133 0.29265177 -0.23604338 -0.009409022 -0.012027769 -0.107362986 -0.018579893 -0.027207013 -0.30546287 -0.29556972 0.17587247 -0.14908658 0.084544 -0.2406674 -0.24233527 -0.105324745 -0.11059649 -0.12823775 -0.16265729 -0.161877 0.10228512 0.0043763528 0.10714732 -0.07538921 0.16245608 -0.17301975 -0.12708673 0.28172287 0.10261609 -0.047515165 0.09073056 0.06200355 -0.43807647 -0.028001837 0.1451085 -0.19326827 -0.016415095 0.0063068597 -0.04669612 0.061694533 0.093280144 0.0077541713 0.047999214 0.11412536 -0.07182102 0.07848654 0.034152005 -0.20460369 0.27645567 -0.11495586 -0.14168905 0.2923137 -0.045041654 -0.065649256 -0.4165 0.047242247 0.22276136 -0.17280856 -0.058931008 -0.0711736 -0.1967709 0.19752233 -0.05766634 0.0055802134 -0.12548736 0.14286111 -0.003209525 -0.3193702 -0.028038183 0.10028126 0.054596465 -0.4501062 -0.12363153 -0.043895386 0.17053802 0.14795475 0.07920446 0.059662927 0.082370944 -0.011383894 -0.1982564 0.27312985 0.035119966 0.028040586 -0.028786864 -0.032149967 -0.2351546 0.025632098 -0.0132549675 -0.08065005 0.02908162 -0.23493892 -0.03435663 -0.20038874 -0.19028695 0.17142983 0.057517465 0.05005569 0.17517039 0.0025342945 0.2752131 -0.28753778 -0.024054404 0.020933725 0.06624733 0.131095 0.3002761 0.26297468 -0.014397363 -0.00398934 -0.05310669 0.010834546 -0.051941033 -0.29022872 -0.008477409 -0.31223395 0.17849839 -0.0741438 0.0077568153 0.055858027 -0.010721025 0.2542082 -0.114182696 -0.13284552 -0.1648732 -0.15396912 0.06600957 -0.022608407 -0.11907819 0.17917365 0.07012722 -0.07995556 0.0061591323 -0.3247569 0.1436584 -0.010413146 0.017240234 -0.10997487 0.10508391 0.011871431 -0.064476594
69948.png 0.09223271 -0.09923743 0.2853459 -0.073548995 0.1626758 0.017754924 -0.14146832 0.03703096 -0.051259622 0.11505307 0.087780714 0.033053406 -0.17710358 0.21061341 -0.22876635 -0.26710385 -0.0782191 -0.011231922 0.27777997 -0.19922741 -0.061744675 -0.04246278 -0.2604779 0.024316378 -0.0754387 0.0011765541 0.024369769 0.09307224 -0.24324775 -0.21055427 0.14117703 -0.07149047 -0.115557864 -0.29139933 0.09677504 -0.23614421 -0.06713957 0.012477947 -0.4044725 -0.19983222 -0.024846397 0.19607246 -0.1197073 0.15323983 -0.064957604 0.011472601 0.16820492 -0.23833063 0.0062160753 0.09660707 -0.18533774 0.15443854 0.0720327 -0.29976797 -0.123473465 -0.0009871437 0.064340055 -0.08076265 0.12717076 -0.19944248 -0.047205452 0.084975705 0.26552185 -0.027312182 0.0056634424 -0.13085693 -0.051711448 0.08306765 0.049526896 -0.092976324 0.009412569 -0.24891357 0.20548809 -0.02703275 0.14491437 -0.056088284 -0.04091783 -0.044347208 0.031024477 0.2415807 0.1916478 -0.10114444 -0.31439897 -0.009723323 -0.023422511 0.036552332 0.060865846 -0.07261404 -0.0071786107 0.16286096 0.052600276 0.1625759 -0.19882712 -0.016271973 0.11973546 -0.10541147 -0.109466866 -0.36888555 -0.050888754 0.16973348 -0.1407911 -0.02966066 -0.20985852 -0.026738854 -0.07589084 -0.087881446 -0.38673925 0.07462125 0.21807948 -0.037557106 -0.07865095 -0.0044850907 0.29268306 -0.14704807 0.21196252 0.13503659 -0.026776528 -0.05964558 0.2770834 0.33549267 -0.03183641 0.18507713 -0.093290694 0.14043334 -0.41383287 0.22753772 -0.2115171 -0.24432477 0.026350036 -0.10845052 -0.14312743 0.17055228 -0.1302021 0.017977187 -0.14484932 0.3852099 0.1239208 0.228032 0.062235642 -0.20812076 -0.20311798 -0.0710684 -0.14461212 0.21131894 -0.13890651 -0.048569832 0.14254597 0.22536603 -0.046329618 -0.05563819 -0.086024605 -0.19447862 0.046449658 -0.1097597 0.009787874 -0.08359435 0.05649339 -0.06121488 0.0056449077 0.2568593 0.1724675 -0.19304864 0.15435368 -0.105461344 0.06616289 0.29842144 -0.2506348 -0.10130725 0.01853111 -0.17688031 -0.14230712 0.17679606 -0.29913348 -0.047298808 -0.25962016 -0.1924343 0.2683976 0.038375616 0.21719778 0.22814718 -0.27330545 0.0035691652 0.14222382 0.14450063 -0.054840162 -0.109429136 -0.18421553 -0.34178835 -0.097161 0.21591899 0.09538136 0.21242186 0.12140102 -0.16889474 0.30086306 -0.08092224 -0.19107234 0.22604637 0.0154977925 -0.2554405 0.0725075 -0.2862191 -0.28192875 -0.1438581 0.27749673 0.065046184 0.16465734 0.08138916 -0.20371029 -0.13828011 -0.075372465 0.043313105 0.16079369 -0.18110958 0.02975284 0.1215289 -0.010013467 0.26796395 0.1753513 0.21564683 0.08358278 0.21730956 0.25361222 -0.12418245 0.16833007 0.12615532 -0.27433473 -0.21990643 0.09633448 -0.03922932 -0.09671765 0.060596123 -0.32605034 -0.19579713 0.03148131 0.026007963 0.29085985 -0.14962216 0.32676005 0.24417841 0.15791762 0.06255072 0.20459576 0.09814792 -0.28695914 0.16814077 -0.10744544 0.007863784 -0.024987755 -0.12977692 0.18676251 -0.27877256 -0.036985174 0.049194854 -0.06145698 0.06725079 -0.09473894 -0.12099264 -0.08933933 0.040682063 0.13862821 -0.06291421 0.0509692 -0.064076826 0.43140897 -0.040146638 -0.14311853 -0.1322296 -0.0505977 -0.06656212 -0.07767836 0.09333085 -0.0036183365 0.40434504 -0.11233741 0.21576284 0.122245245 0.11665353 0.2776309 0.14709432 0.04548793 0.24295503 -0.43251818 0.2818699 -0.15527147 -0.37664625 0.12562753 -0.116776735 -0.05478478 0.109429516 0.005273363 0.329657 -0.06108558 0.32884952 -0.0010680563 0.12915598 0.025052972 0.0077576498 0.05510559 0.11270736 -0.17924163 0.035188455 0.30760676 -0.051502373 0.21397021 -0.15827295 -0.10056634 0.15993069 0.1466705 0.19113004 -0.023257414 0.15585487 0.20309387 0.113013335 -0.09578418 0.021344522 -0.08254676 0.017363448 0.01270402 0.13378966 -0.045929454 0.053320684 0.07003918 -0.025704784 -0.053293847 0.08106409 -0.062792264 -0.045015495 0.021379663 0.122919545 -0.14589854 -0.24915512 0.14045718 0.21941903 0.0727608 -0.00087238464 0.12622526 0.056143023 0.04785933 -0.09967613 0.14964034 0.19117327 -0.024303546 -0.15160868 -0.21380584 -0.1882588 -0.12868814 0.15383159 -0.1942714 -0.049486514 -0.10086101 0.1524054 -0.1493937 0.21277036 -0.07665953 -0.13866834 0.029216185 -0.112642646 0.14892523 -0.12311636 0.04632638 -0.0017591554 0.08858021 0.111664414 -0.19467019 -0.01723497 0.15814488 -0.07598922 0.14570509 -0.041780196 -0.12263424 0.12075862 0.032118972 0.21719754 0.20953262 -0.14016035 -0.34636825 0.23041502 0.3298051 -0.27480242 0.28956395 0.13163608 -0.02468912 0.39155617 -0.24547571 0.033756595 0.011547535 0.013210538 0.2082475 0.07430174 -0.22631696 -0.09416881 -0.19500397 0.29875022 -0.27427524 0.065324806 -0.017318454 -0.034964435 -0.112354584 -0.25097334 -0.30021662 -0.20678392 -0.37401372 -0.24141988 0.14696726 -0.0965303 0.19001603 0.027566982 -0.18974493 0.06608033 -0.24682234 0.020804387 -0.22947416 -0.07692478 -0.17759395 -0.19887528 0.17862566 -0.12736747 -0.06005909 -0.05830282 0.10056043 -0.12672694 -0.057443272 0.09347961 -0.20463113 -0.05599994 -0.21078545 -0.031077601 0.01805688 0.14488393 -0.07939533 0.24095365 0.08430983 0.023572274 0.101601586 0.17078476 0.1780191 0.0014732743 -0.28622365 0.2376049 -0.25358084 0.06570206 -0.25101098 0.12733087 -0.061426394 0.06023355 -0.06741027 0.09361262 0.11133422 0.20548381 -0.48551753 0.24852781 0.18509266 0.26773307 0.1774017 -0.15493202 -0.034227785 0.068897255 0.20485128 -0.05082526 -0.12187669 0.15577438 0.06269129 0.35451475 0.09849634 0.12357796 0.014777021 -0.102993146 -0.024579499 0.24068877 -0.1480917 -0.003189114 0.06319341 -0.17952795 0.15924634 -0.13534948 0.08676059 -0.07685093 0.14171314 -0.11603329 -0.016187262 -0.20517324 0.04345134 -0.0666366 0.19342385 -0.020124063 -0.16797875 -0.0561554 -0.24038737 -0.12842359 0.027042398 0.122841254 -0.16679713 0.23206429 -0.04889954 0.030579379 0.17420863 0.165216 0.10589724 0.14481187 0.26131418 -0.2951925 -0.114289686 -0.322687 -0.18509449 -0.056521993 -0.23997529 0.2775855 0.05605336 0.020824183 0.19359112 0.13567851
69949.png 0.059524674 0.04547151 -0.21736245 -0.024306742 0.13432369 -0.25555488 0.029423272 0.04207885 0.27542257 0.041398186 -0.11586225 0.2068649 0.021861438 -0.34528428 0.16459912 0.1335369 -0.08427308 0.21556793 -0.064702034 -0.13276581 -0.16180304 -0.10172639 -0.1225633 -0.10457535 0.23010615 0.081433 0.2418763 0.1928462 0.010737758 0.10886965 0.10929256 0.09626995 -0.10329234 0.042916637 0.047784727 -0.12758467 0.110812515 -0.06931456 -0.020273978 0.03197359 0.33867076 0.10611338 0.0964546 0.019819634 0.08256745 -0.13814206 0.29166764 0.08927039 0.05123055 0.20243241 0.020525128 -0.005994027 0.05958007 0.17619601 0.10009192 0.058178585 0.14401227 0.051865555 -0.07937799 -0.15826347 -0.14806351 0.06508416 -0.051481742 0.13861087 0.025687622 -0.11397439 -0.035908498 0.12242712 -0.1265045 0.3136185 -0.101801135 0.079882145 0.22478043 -0.019821415 0.15636028 0.31397682 -0.2480009 0.02328121 0.2703161 0.030141912 0.085373975 -0.2017989 -0.03657503 0.21247697 0.122591205 0.10489278 -0.035357144 -0.014941168 -0.097989194 0.19507904 -0.04851212 0.04435645 -0.11848333 0.0017795662 -0.074416734 0.20585819 0.0971742 0.13202482 0.011965532 0.004434181 0.050128553 -0.13732617 0.028531231 0.08487788 -0.10534066 0.10552582 0.08657922 -0.14658444 -0.58478814 0.065791175 0.079863735 -0.17299585 0.025681172 -0.03871015 0.25915062 0.012828862 -0.046404786 -0.09365965 -0.26279792 -0.033308357 0.06587043 -0.12068033 -0.0932814 0.5001753 0.04314758 -0.04758106 0.07520328 -0.543972 0.23315188 0.042628422 0.13678277 0.117906325 0.16882955 -0.1373555 -0.13028708 -0.27828684 0.4169171 0.22546232 0.13242908 0.08671326 0.07838726 0.0273402 0.52327245 -0.17304263 0.30420014 -0.06454896 0.07766204 -0.026391882 -0.009756543 -0.12685014 -0.025339836 0.12012535 -0.13516423 0.01744632 0.16690253 0.07039124 -0.18869138 -0.10295281 -0.14062047 -0.0078074336 -0.35703933 -0.06091881 0.059471242 -0.13997284 -0.0543197 0.11492244 0.19513871 0.11657805 -0.05698485 -0.2709065 0.03813221 0.130622 0.018311424 -0.062126826 0.08243874 -0.10001544 -0.4552125 0.020341733 -0.10121643 -0.04054646 -0.24331225 -0.056640204 0.10760275 -0.10257078 -0.16228035 0.33115858 -0.045926955 0.12368928 -0.11144023 -0.0943043 0.1591891 0.010759212 -0.33126774 -0.15399185 0.33117408 -0.019874927 -0.052438 -0.2531929 0.025909176 0.040572643 -0.19196619 0.18439399 -0.019823842 -0.06329655 0.021825777 -0.0765563 -0.1479013 -0.08526263 -0.02833907 0.17702885 -0.22896966 0.16288953 -0.19217017 -0.17393221 0.15482646 -0.03755028 -0.08081839 0.15212373 0.08205819 -0.08024318 -0.19168136 -0.07757628 0.28932974 -0.10659432 0.1711043 0.12465831 -0.002630168 -0.09505688 0.088846594 0.024588037 0.025758563 0.059387576 0.033423185 0.19766974 -0.17368224 0.22890201 0.20930624 -0.06813438 -0.13585469 -0.19237883 -0.18741973 -0.005117585 -0.083522454 -0.059954528 0.07414006 -0.29503292 0.034840688 -0.20721525 -0.015607734 -0.28557786 0.3439495 -0.12989272 -0.18186449 0.18868175 -0.10326796 0.074836835 0.018934712 0.034009967 -0.12312202 0.019557146 -0.13801333 0.02020585 0.4079588 -0.055621333 0.2126475 -0.19067061 0.22406231 0.0074905697 -0.07838528 0.0045043067 0.18109624 -0.19035605 0.101422 0.13964106 0.23498417 -0.03303157 -0.10732703 0.22528826 -0.10911592 0.31932557 0.17379116 0.31804562 0.18413526 0.17482829 -0.03784075 -0.2387651 -0.06653488 -0.16622154 0.018695539 0.3338306 -0.04755878 -0.08444366 0.009178276 -0.1390066 -0.48363897 0.03846501 -0.4156801 -0.0646162 -0.049232513 -0.18260555 -0.41110316 -0.0025402252 -0.16329217 -0.027017556 -0.0023864072 0.094651565 0.025725888 -0.20882359 0.017422969 0.17371924 0.03374093 -0.02577582 -0.03551165 -0.04987327 -0.14887883 0.07796369 -0.046694703 0.08759215 -0.2146791 -0.03371029 0.079549514 0.13766517 -0.10209105 0.044963844 0.11792295 -0.16362448 0.15006651 -0.03846603 -0.17301011 0.14108787 -0.12884562 -0.040650073 -0.2025141 0.12244096 0.15977366 -0.20231456 -0.20911132 0.0071444707 0.09913877 -0.013352586 0.23553005 0.0015445801 0.1523188 0.01593884 0.26049855 0.12483766 -0.20393527 -0.159968 0.02295054 0.36721066 0.082590386 -0.02683903 0.03617342 -0.09222348 0.03227524 0.010234232 0.24716721 0.04437414 0.14157899 0.17610615 -0.020109193 -0.19104053 0.077362046 0.0960404 -0.11485264 0.023690533 0.060154725 0.02382162 -0.008681587 0.13251717 -0.028153438 -0.14301077 0.03274278 -0.16967092 0.13583097 -0.4188904 -0.29113045 -0.17703725 -0.017426135 -0.14101247 -0.18846683 0.1088603 -0.17019399 0.16287224 -0.094092056 -0.045268487 -0.3664037 -0.035474356 -0.17085317 -0.047277734 0.29606193 -0.1202384 -0.07220935 0.10177406 -0.030657494 0.065419264 0.2397329 -0.10877149 0.11694851 0.12221402 -0.07462322 0.064885736 0.02584112 -0.20099737 -0.16080268 -0.019908147 0.07373706 0.18426256 0.26638973 0.17649595 -0.19882636 0.055133175 0.13272566 -0.14362633 -0.03587038 0.05165742 0.5001763 0.2562259 0.21736068 -0.28876546 -0.082867004 -0.13477673 -0.13607451 -0.12571944 0.27624246 0.03179121 -0.33537266 -0.16871372 0.16052324 -0.17501733 0.089473784 -0.238559 0.16377762 -0.18612258 0.17533225 0.08366651 0.17180485 0.109028615 0.06201732 0.010742289 -0.107783 -0.020710895 -0.34148037 -0.11179967 0.046986047 0.057518013 -0.13923109 -0.22906332 0.06703501 -0.3006639 -0.13478003 -0.077430144 0.039175514 -0.029341273 0.1505086 0.21434848 -0.37532222 0.02140313 -0.05018513 -0.042358205 -0.056060158 -0.2716763 0.007848106 -0.18922877 0.20637247 0.16746187 -0.10457591 -0.10167767 -0.07024944 -0.19927096 -0.16413195 0.17379156 0.09493073 -0.50049895 -0.08245009 -0.21723567 0.203638 0.06213776 -0.2887077 0.009788659 0.15140143 -0.113692425 0.22620618 -0.040359963 -0.02122853 0.070404105 0.22252089 0.40240675 0.050658982 0.15867126 0.07849658 -0.05744474 -0.055724695 0.19141878 -0.15366124 0.5714518 0.21430285 -0.0039699203 0.054676387 -0.14475226 0.10492077 -0.029722162 -0.29052475 -0.017554674 -0.12894581 -0.15223491 0.0082860505 0.1881544 -0.2197077 -0.04774036 -0.038894147 -0.09489937
69953.png 0.14290646 0.042966068 0.05581343 0.23578274 -0.49822256 -0.22420204 -0.33011022 -0.13174619 0.2597618 0.11929597 0.03631166 -0.26183656 0.13629447 0.31946656 0.00029521284 -0.3024188 0.19773029 -0.013212669 -0.12421545 -0.16725317 0.09813709 -0.097868696 -0.24447004 0.22777736 0.041915923 -0.15743901 0.0112546105 -0.023097515 -0.17744379 0.0105900215 0.29152647 -0.36924163 -0.1779793 0.15402159 0.06783681 0.24308643 -0.04433182 0.32343903 0.42724764 0.10284379 0.011870794 0.24886541 0.23432058 0.18858719 -0.42457226 -0.26584834 -0.09451341 0.25773323 -0.13504007 0.12029184 -0.15947263 -0.039451018 0.041742016 0.16780612 0.15237601 0.42321134 -0.092415616 0.08800512 0.3289558 0.11863399 0.07313243 -0.18242268 0.3821044 -0.17756495 -0.05528703 -0.24335712 0.032959305 -0.12510502 0.013453003 -0.1410089 -0.43711075 0.07526463 -0.13455513 0.074781545 0.10254121 0.15758176 -0.116386645 0.15378721 0.23550059 -0.06410659 0.058779076 0.48200244 -0.048179664 0.29650643 0.10595997 0.3651157 0.13126273 0.05362255 0.032317724 -0.05125531 0.16364813 -0.022454884 -0.2074116 -0.35567093 -0.20460927 0.17825429 -0.21517242 -0.06229302 -0.0074907993 -0.25285208 0.24184185 -0.08527674 0.22915366 -0.18125325 -0.01267211 -0.0071900436 -0.22373374 0.005647732 -0.051251844 -0.04591278 -0.326464 -0.3005265 -0.19464199 -0.013297211 0.17107351 -0.2552776 -0.060582153 -0.15153523 -0.083475105 0.034677316 0.21596809 -0.30048972 -0.03350733 -0.52753395 0.24713467 -0.0019778842 -0.03243321 -0.2403247 0.13447356 0.5020754 0.17307639 -0.0016975229 -0.13920067 -0.005517949 -0.5371349 0.012609213 0.03955066 -0.41064787 0.049712606 -0.026446685 0.03967798 0.2756562 -0.05646449 -0.35409036 0.049991157 -0.21100351 -0.1432114 0.0045432243 -0.19085683 0.023995448 0.14958614 -0.008621014 -0.23453978 -0.022647254 0.119721465 0.18423434 -0.3286024 -0.08642322 -0.16381598 0.07368357 0.13070355 0.121929064 0.011114507 -0.027658962 0.14742945 0.06158566 -0.5202911 -0.12254408 0.26611248 -0.12640959 0.32973143 -0.24618459 -0.10440551 0.22844778 -0.24190296 0.0060728975 0.03766518 -0.25719312 0.12123473 -0.10316805 -0.0027148887 0.1271784 0.1378701 -0.03977328 0.17861493 0.14537106 -0.0684655 0.06125893 -0.06130939 -0.20642947 0.27660322 0.18235826 -0.042200677 -0.18792586 0.015073701 -0.25120857 0.07114807 -0.1855341 -0.035426445 -0.056327518 0.28912744 -0.2869536 -0.058799945 -0.08289251 0.034537233 0.2522516 -0.049584877 0.30126104 0.2389808 0.22963305 0.10167281 0.089290656 -0.058552213 0.14712304 0.042347062 -0.1136566 0.16772558 -0.0957372 -0.01887602 -0.13896221 -0.3735002 0.013818427 -0.36683404 -0.10944099 0.30422357 -0.3525221 0.14013396 -0.055407025 0.06871024 0.37269145 -0.03432136 0.06094664 0.22162805 0.108142465 -0.27422956 -0.21794462 0.13427955 -0.015757984 -0.28685126 0.051864352 -0.16226013 -0.10191084 0.027339065 -0.21915764 0.3808404 0.33106506 0.1278462 -0.025649596 0.35214835 -0.4316682 0.26700708 -0.21987244 -0.2507164 -0.1696223 0.09041207 -0.07609392 0.29573923 0.1490121 0.16940197 0.16707873 -0.17541489 -0.11635029 -0.061945938 0.061309002 -0.027481582 0.15054512 0.21623164 0.15149024 0.12623708 -0.22422127 -0.021522896 0.007643833 -0.023666808 -0.15296507 -0.024787953 -0.27479613 0.13235289 0.135115 0.41800618 -0.09291686 -0.34132352 -0.13785276 -0.20998031 0.026240889 0.00079837826 -0.29952708 0.18187733 0.28371802 -0.13513921 0.25315776 0.04489378 0.0613356 0.08609755 0.3319491 0.30020508 0.07486419 0.048903033 0.1637185 -0.28555855 -0.0449301 -0.409992 0.02477208 -0.15601918 -0.22837622 -0.04307954 0.03399465 0.027035939 -0.35354403 -0.23549785 0.20849857 0.2451664 -0.11274008 0.2763763 0.09153846 0.16190052 0.12236742 -0.12764297 0.14324166 0.12100356 -0.22370301 0.21503292 0.017157443 -0.041395184 0.007719938 0.18242742 0.18725969 -0.07840487 0.014012646 0.11499706 0.027663436 0.09960099 0.03048959 -0.014702149 0.1145214 0.156641 0.021203881 0.17162226 -0.28193557 -0.009664846 -0.15881498 0.38392252 -0.11420117 0.22418624 0.053399596 0.010387455 0.018808296 -0.4340482 -0.48194075 0.11347303 0.15109159 -0.13557054 0.21603021 0.09786444 0.21808931 0.5711837 0.18660755 0.0873881 0.23014922 -0.028160969 0.14079565 0.015345034 0.23166619 0.20273815 0.31111452 -0.11551032 -0.08861707 0.058796458 -0.2165667 -0.032927927 0.36721113 -0.5501677 -0.06838418 0.21223482 0.18254332 0.278592 0.047637213 -0.327497 0.152986 -0.12968273 -0.46995303 0.071294665 -0.120417945 -0.22242418 0.03765698 0.0065738205 -0.05585708 0.11211888 0.08004447 -0.0656913 -0.1624852 -0.27161422 -0.099622905 -0.31454754 0.3177535 0.1612212 0.039488427 -0.09915944 -0.15115592 -0.0016514586 0.46200773 0.15585235 0.037656732 0.09485356 -0.4065195 0.19511056 0.16365358 0.0537495 -0.119433455 0.23419742 0.086190574 -0.033807144 -0.097104564 -0.1118498 -0.31714752 -0.29758388 -0.20433852 0.22224277 0.057602465 -0.12261022 0.36335066 -0.13560238 0.1617977 0.07298385 0.15966114 -0.10034425 -0.20083606 -0.14294627 -0.058007084 0.27555442 0.25109452 0.04941502 -0.44089243 0.07809883 0.37500557 -0.5542096 -0.13246433 0.0043687862 -0.18200526 -0.07333391 -0.35772464 0.09080332 -0.20991576 0.060424425 0.1674824 -0.3614252 -0.23077743 0.19800042 0.0096871825 -0.534777 0.17580749 -0.25313705 0.08061492 0.18149291 -0.1744245 -0.15174666 -0.22128497 -0.3803808 0.03004545 -0.19683525 0.081101686 0.53134793 -0.37567577 -0.06465106 -0.16003895 -0.38679612 -0.42445013 0.0942173 0.27516553 -0.040996764 0.39205065 0.16291541 0.32214853 -0.08231763 -0.32222724 -0.098475136 0.05369511 0.03621227 0.24303328 0.10784554 0.3396723 -0.1833879 0.111043215 -0.0076592225 -0.11191552 0.19654217 -0.0058627916 -0.10657306 0.107349165 0.0032909857 0.10962976 -0.17610829 -0.4852734 0.014875019 -0.0066194884 0.00743397 0.0728378 -0.02573509 -0.08083428 -0.038675126 0.0737076 -0.24532363 -0.14486074 0.07649873 -0.17558901 -0.38773936 -0.1311962 0.4455472 0.14625542 -0.24100044 0.07695619 0.08455829 -0.0142088225
69954.png -0.1636323 0.04110806 0.05837256 -0.36574945 0.07505681 0.16261567 0.033319935 -0.25994453 0.113776945 0.14093621 0.16086264 0.21186551 -0.25824094 -0.042264972 0.078780495 -0.03428957 0.12510286 -0.18967314 0.25543988 -0.21662 -0.049992863 -0.012828087 0.08925028 -0.1926227 0.05318959 -0.0958179 0.030635405 0.16961494 -0.00042937114 0.15067118 0.082709976 -0.3709126 -0.051051583 -0.31738076 -0.14739554 -0.2241082 0.15459113 0.02433502 -0.15689027 0.18861829 -0.058794625 0.03444964 0.24668315 0.12293668 0.5370446 -0.21220171 0.5699647 0.34863698 -0.06622272 -0.3460734 -0.0775798 -0.35563815 -0.063484095 -0.30880705 0.36110726 0.23595239 0.04311581 -0.07214341 -0.047116786 0.07964939 0.07304484 0.20876633 -0.30819422 0.20789193 -0.034525756 0.024370205 0.02380784 0.16480584 0.1708499 0.100465626 0.25367197 -0.11048706 -0.089685604 -0.15970331 -0.15167104 -0.110243075 0.118051365 0.17689534 0.2330938 -0.33812746 -0.019925134 -0.26207146 0.14359234 -0.033458777 0.12723938 0.026846824 -0.104101576 0.008418778 -0.37418994 -0.120676875 -0.071443446 -0.20784181 0.1881595 -0.017508695 -0.04421146 -0.28241444 0.15092674 0.29048663 0.092142776 0.06869628 0.23870833 0.031362172 -0.09610715 0.00040580853 -0.08915533 -0.22380209 0.017503133 -0.008067421 -0.35896507 -0.27904388 -0.13610864 -0.1630132 0.09915795 -0.088181235 -0.061250534 0.26777253 -0.24600716 0.15334871 0.4863766 0.061948944 0.38035536 -0.35860923 -0.2779802 -0.037597194 -0.07348743 0.035368495 0.22413605 0.046789456 0.098654196 0.002342198 0.15096089 0.22765593 -0.0012893527 0.18640006 0.16892636 -0.11824629 -0.079596095 -0.23695046 0.08905132 -0.35002035 0.14209315 -0.046291545 0.2264259 -0.15273714 0.24160773 -0.2892446 -0.22948295 -0.061163843 0.17110687 0.10457122 -0.050863467 0.118111014 0.20186618 0.02870054 -0.1597353 0.108339265 0.44440752 0.27749023 -0.085311376 -0.23868811 0.06211464 -0.0064288857 0.14980043 0.014860833 0.02449566 -0.07988509 0.30363762 -0.32454142 -0.22015756 -0.11148235 -0.12467953 0.37806207 0.0736189 -0.24091563 0.2319837 0.31744665 0.3253069 -0.0106944125 -0.26099104 -0.113038495 -0.30385163 -0.12068657 0.40245035 -0.30574796 -0.14532664 -0.26314253 0.28145567 -0.16785236 -0.17509358 -0.04636243 0.008298926 -0.14621492 -0.1513959 0.17630734 -0.022323087 0.0036485149 -0.14817645 0.07677174 -0.17909385 -0.018655261 -0.15701093 -0.03660604 -0.3664806 0.070536755 -0.07504845 0.3350837 0.11832004 -0.12543319 -0.06383724 0.021706473 -0.25632402 0.13704896 -0.177039 -0.094679855 -0.041851886 0.14569111 0.37887916 0.29842508 0.09131155 -0.28223506 -0.47361648 0.031807628 0.08362847 0.13042478 0.1938757 -0.027914397 0.010279142 0.07257891 0.097790726 0.008128986 -0.3756144 -0.012834772 -0.24418858 -0.13579617 0.0022139482 -0.16233362 -0.13852237 0.026633281 0.03626897 0.3926277 0.19022943 -0.29488412 -0.24124879 0.17278756 0.08828262 0.30158186 -0.40565687 0.45514858 0.2136648 -0.2270361 0.26386124 -0.14397104 0.15149473 -0.10722334 0.13150056 0.030535305 0.031862915 -0.088061154 -0.00062737195 -0.11505186 -0.13642293 0.044430118 -0.02833683 0.096055225 0.095357254 -0.06594165 0.3050109 0.088679336 -0.322141 0.16775025 -0.23080014 -0.11756015 -0.16091947 0.004289495 0.3011099 0.08494156 0.20126836 0.35829926 -0.28651845 0.0014235511 -0.078751855 -0.24074173 -0.02304345 -0.251197 0.22967872 -0.30833313 0.101332135 0.18782274 0.026256928 0.36032534 -0.10380735 -0.006873871 -0.14891139 0.17139693 -0.09141471 -0.025873063 -0.31171894 -0.1690682 -0.35543 -0.16943452 0.16669343 -0.22108787 0.10669513 0.23694623 0.035943184 0.20780554 0.0063357656 0.051456824 -0.34338298 0.11624072 -0.30781668 -0.12614849 -0.22548217 -0.28108323 -0.3618844 0.016097115 -0.047869842 0.1942386 -0.060769327 0.09302205 -0.0909468 -0.0063166874 0.110529676 0.05971769 -0.1634604 -0.12712535 0.053052243 -0.06678633 -0.1361226 -0.10118752 0.02735287 0.07420274 -0.08673238 -0.10930283 0.32267937 -0.06082841 -0.06252631 0.15562445 -0.10172426 0.17989284 -0.0013248646 0.25778568 0.18186405 0.049030352 -0.24103718 0.2288981 -0.3347699 -0.056205776 -0.21179424 0.14002226 0.27108657 -0.12748209 0.2516439 -0.20780672 0.024659822 -0.12230171 0.09849161 -0.23784275 0.2904805 0.22253644 -0.16570537 -0.09082545 0.305261 0.08818066 0.25670713 -0.04718805 0.22181052 -0.19069606 0.3894666 0.00652615 -0.29094365 -0.31876704 -0.25949997 -0.28700715 0.0865008 -0.084277116 0.088180706 0.23412389 0.10869185 -0.32656917 0.27615866 0.31389096 -0.25762552 0.34487054 -0.28047532 -0.17531797 -0.2646406 0.2388115 -0.25007468 -0.039245203 0.11210616 0.23270817 0.001282715 0.18692084 -0.08203891 -0.13116756 0.0958579 -0.061547007 -0.21200162 -0.19234656 -0.11780845 -0.1743639 -0.15632783 0.22546336 -0.15303248 -0.23279962 0.21178196 0.23264521 -0.081065565 0.109149136 0.13967992 -0.10267829 -0.22659092 -0.10190182 0.11529152 0.1119258 -0.10591913 -0.34069547 0.04820342 -0.16951606 -0.1355954 -0.43266752 0.37312874 0.3256106 0.3281717 -0.13297263 -0.0336272 -0.06386281 0.0923447 0.5984642 0.14093553 0.118844375 -0.39830068 -0.1970616 0.013742874 -0.3172063 0.14244878 0.11701045 0.068359725 -0.0031152118 0.07011252 0.22288233 -0.22882627 0.14908989 0.14393911 0.59809613 0.119087055 -0.16119424 0.23072821 0.04125568 0.009304492 0.036611237 -0.22082366 -0.5317598 0.027034855 0.20839787 -0.008119823 0.21917741 0.06667324 -0.023700267 -0.38375613 0.23627521 -0.06812868 0.19707821 0.09444043 -0.3236711 -0.0022701358 -0.19607876 0.1246152 -0.0073012887 0.1501388 -0.20389453 0.10958048 -0.28355822 0.3481113 -0.14140414 -0.0804803 -0.13579072 -0.13417317 0.18165642 -0.08137241 -0.04681536 -0.17822608 0.06646087 -0.051852293 -0.12010558 0.015389157 0.17057535 0.2224369 0.07470704 -0.18446857 -0.008686736 -0.21945645 0.04359921 0.043338317 -0.22521463 -0.0007340464 0.032796543 -0.109017834 -0.09987005 0.12932397 -0.04425817 -0.032127075 -0.35088098 0.027922846 0.04418049 0.16295588 -0.306996 -0.085427746 -0.19997814 0.14905134 0.2606605
69958.png 0.13652772 0.21225001 -0.0688215 0.04612236 -0.16499986 -0.13456652 0.11921832 -0.2924076 -0.018534057 0.25563684 -0.16281757 -0.493439 0.29680023 0.044243973 0.097750224 -0.01827131 -0.023697965 0.061191067 0.17070004 -0.2472811 -0.09218987 -0.0055396142 0.24807091 -0.2953288 -0.22949404 0.03138021 -0.32368103 -0.09273372 -0.13983367 -0.19647515 0.2382107 -0.19298023 -0.09332282 0.04645768 -0.02073721 -0.15937006 0.13040707 -0.06714204 0.027472997 -0.14480956 0.36612025 -0.07890764 -0.19503674 -0.12768613 -0.19966717 0.033519078 -0.32948995 0.0008389832 -0.07657336 -0.2559116 -0.12796095 0.4352766 0.01396364 -0.43983957 0.53158695 0.27352753 -0.4782101 -0.047021627 0.071041964 0.081892684 -0.3795083 0.1209054 -0.108042434 0.014643387 -0.06087604 -0.16604277 0.2298685 -0.09475943 -0.16757838 -0.43955514 -0.045368597 0.047820974 0.079639554 0.21732216 0.011046204 0.42208365 0.033635817 0.1566054 -0.29398522 -0.12639806 -0.23620793 0.128475 0.17418413 0.21804999 -0.20679991 0.08220917 -0.15524405 -0.087939 -0.17502959 -0.46013337 -0.06856927 -0.11143718 -0.25715595 0.0043891985 -0.29508865 0.101777114 0.17962208 0.08372712 0.3499758 0.17770591 -0.031122407 -0.10319478 0.10995478 0.31059346 0.12847199 0.22751144 0.031656887 -0.065610416 -0.5572737 0.12564446 0.08052086 0.10175796 -0.06933971 0.14833082 -0.07523763 0.1500163 0.029556697 -0.060302448 -0.21158282 -0.47577965 -0.027602922 -0.22489214 0.010140952 0.003652813 0.39525133 -0.1539878 -0.057490796 -0.1946304 -0.21872911 0.023490122 -0.049156904 0.13366123 0.16750404 -0.019505937 0.12581393 -0.23192579 -0.07392961 -0.08830697 0.0938825 -0.06741755 -0.12728415 -0.19752537 0.1955547 -0.30949834 0.10978705 0.071622044 0.059994265 0.13794221 -0.106593214 -0.14884542 0.1816508 0.07850299 -0.01328062 -0.12818427 0.085972205 -0.12430918 0.14107211 -0.14986642 0.056633446 -0.27704662 -0.07073476 0.2183258 -0.28097135 -0.10751956 -0.58404404 0.1817869 0.3166112 0.30982777 0.202834 -0.039009716 0.4103262 0.054501355 0.0033457852 0.08223411 -0.14634702 0.18351032 0.12785341 0.19307011 -0.17301136 -0.015797356 0.033324737 -0.025170693 0.18370275 0.055545554 0.014332346 0.055021595 -0.0008074056 -0.02458826 0.089323156 -0.09104816 0.06336133 0.11691313 -0.013153482 0.002433163 0.016475575 0.18169421 -0.02354945 -0.19204642 -0.11934039 0.024159247 0.1389101 -0.10309747 0.11346283 -0.2995271 0.04027194 -0.14145699 -0.10085369 0.15507227 -0.19941723 0.011520093 -0.13568139 -0.3900878 -0.020808958 -0.123024695 0.18592691 -0.0143418675 -0.21790397 -0.1935195 0.37234563 0.38347644 0.03877199 -0.034862652 0.13785106 -0.17392947 0.117245816 0.15893248 0.042276874 -0.30562592 0.03283509 -0.22597755 0.08993935 -0.12625517 0.04517459 -0.124728486 0.27968803 0.041750528 0.23591718 -0.06788457 -0.16534005 -0.37907928 0.17527615 0.101438716 -0.18234153 -0.14903127 -0.008053676 0.34180748 0.20612034 -0.15313058 0.052098945 0.071000904 -0.0014865943 -0.18911384 -0.009118324 0.051402878 0.00015259854 -0.19188333 0.010155466 0.19328627 -0.056952916 -0.016769696 -0.23814814 -0.08759314 0.27009988 -0.21305159 -0.0018010127 0.08701025 0.019975098 -0.007774498 0.036807086 -0.06078047 -0.36441895 0.31691495 0.025932021 -0.11352989 -0.06294707 0.09019497 -0.13919011 -0.039125036 0.10143604 -0.22231251 0.17184079 0.24874361 0.049453836 0.1803287 -0.06993747 -0.0058800704 0.04729111 -0.14181907 -0.22198245 -0.24677756 -0.0717035 0.3056185 -0.06488014 0.048713468 -0.151515 0.058738455 0.21661982 0.22300008 0.19847164 -0.26353982 0.009960316 0.14433359 -0.03448722 0.08669264 -0.23852256 -0.2234625 -4.2737614e-05 -0.1784531 -0.041243564 -0.117313 -0.073962845 0.10593281 0.29378426 0.0029186346 -0.037554745 0.03948809 -0.1299496 0.1875787 -0.03649519 -0.05120634 0.09545072 -0.0405293 -0.32913452 0.03306286 -0.10392101 -0.17778286 0.1050213 0.20629431 -0.18246365 -0.016854385 0.24138154 -0.07592578 -0.2687799 -0.18080159 -0.09626423 -0.20160261 0.027488789 0.19016293 -0.012269417 -0.2229632 0.26506823 0.15673085 0.08018935 -0.019648565 -0.13160808 0.054199237 -0.03684184 0.17155074 0.36346224 0.04994907 0.20843573 0.0018631829 -0.45026833 0.026599318 -0.00652664 -0.007817831 0.27514488 -0.19384533 0.20987348 -0.06470397 0.13099217 0.13187343 -0.29600003 -0.2681511 -0.17445979 0.1264694 -0.022525646 -0.041130617 -0.21717824 0.062459238 0.10205093 -0.12506317 0.10181348 0.050184693 0.013618406 0.18021104 -0.3725726 -0.17936549 -0.04862808 -0.049606845 0.070898324 0.027846538 -0.24711558 -0.11150537 -0.040280014 -0.10713871 -0.29312414 -0.10867585 -0.4001521 -0.3114598 -0.2118128 -0.52517956 0.1175229 -0.019085504 -0.22712067 0.029053561 -0.07017569 -0.08084992 0.12203109 0.09199079 -0.01897531 0.07127822 -0.031188484 -0.10171878 -0.13170533 0.029567225 -0.031412926 -0.111458234 -0.07097352 -0.13448597 -0.0758925 0.12983295 -0.057075765 0.24521089 -0.038208812 0.06912541 0.09594059 -0.0930964 0.08809758 0.25106782 0.40303913 -0.041121937 0.1876867 -0.0077903285 0.12034015 -0.16009758 0.034469053 -0.0033368994 0.26529348 -0.23547287 0.13738303 -0.14377604 -0.032854315 0.14664951 0.14662372 0.009079216 0.42790017 0.003214286 0.1661731 -0.14531481 0.25712118 -0.09577685 -0.30286032 -0.19009759 0.16741183 -0.028787954 -0.014005652 0.115268655 -0.07472279 -0.064671025 0.07925817 0.25337592 -0.0016569033 0.13189128 0.23498443 -0.010803814 0.1384803 -0.3190652 -0.12126817 -0.024896434 0.21322069 -0.22708388 -0.090378575 -0.2894822 -0.024506569 0.13936934 0.05518446 -0.12638238 -0.028008737 -0.070228375 0.1539539 0.39737123 0.1569695 -0.13811061 0.248295 -0.15241879 0.0425914 -0.006135734 0.13584895 -0.05427209 -0.15397826 -0.08258599 0.22198015 -0.03242832 -0.33679643 0.19061601 -0.066715404 -0.048018273 -0.029299043 0.03979945 0.14795794 -0.051779374 0.17527662 0.22758736 0.13735294 0.04828741 0.054863453 -0.14864472 0.07419305 -0.26969522 0.051068652 0.17301403 0.14257255 0.39484274 0.05755678 -0.06116508 -0.04266647 0.1462801 -0.08718163 0.18843028 -0.0075292937 -0.088328026
69962.png 0.09681719 -0.29060754 0.086723804 -0.17119014 0.19111757 -0.052678023 -0.15595795 0.040047072 0.35221875 0.09724615 -0.003878432 -0.008221795 0.06999502 0.2415296 -0.42390585 0.4321353 -0.26681617 0.34054738 -0.22520192 0.10206691 -0.42742634 -0.09709268 -0.09593898 0.16659582 0.3472876 -0.110588 -0.24296573 0.09874457 -0.049678013 -0.096406125 -0.09898385 0.2275009 0.010262049 -0.046718296 -0.01912982 0.04531532 -0.21329486 0.36558747 0.08592911 -0.24441627 0.09365125 0.17563106 -0.18460084 0.045850206 0.089532174 0.011772681 0.25014988 -0.13251966 0.1730418 0.16980213 0.021395907 -0.16557756 -0.09874254 -0.09377124 -0.0027356495 -0.16711903 -0.23974057 0.11844794 -0.01830909 0.02902481 -0.31473678 -0.02093095 -0.12822634 -0.00026662287 -0.0855709 0.02751229 -0.16688877 -0.010181732 -0.2245671 0.22126395 -0.010190217 -0.010990022 0.072956435 0.21981509 0.18131891 -0.029551508 0.022476897 -0.14094612 0.37345135 -0.070434496 0.024206236 -0.019871559 0.042811826 0.17584766 -9.58191e-05 -0.1450534 0.18610784 0.15490068 0.053873345 0.3005365 -0.16805671 0.23271438 -0.2370169 -0.032161918 -0.109263994 0.20335318 -0.15942974 0.17036563 0.1605703 0.09135743 -0.041035715 0.0076525523 -0.34439722 0.16516669 -0.10298981 -0.09303338 -0.1867051 -0.07533142 -0.07880812 -0.04903636 0.12718149 -0.042189144 -0.0005823255 0.030032763 -0.07282353 0.06938292 -0.13244025 0.07062038 -0.16952264 0.092295885 -0.0992249 0.29734984 0.17160513 0.42543322 -0.39236376 0.14283893 -0.101467825 -0.33912635 0.4383129 -0.041142922 0.02293707 0.18598594 0.22118975 -0.0788786 -0.1055285 0.24408533 0.20812678 0.07672036 -0.14855409 -0.1267311 0.16281618 -0.046550043 0.23506586 0.030453568 0.06763191 -0.03405333 0.06851428 0.40521574 0.10446054 -0.074069746 0.13432556 -0.008306102 -0.26650575 -0.018571874 0.33207345 -0.119152464 0.09900756 0.047216486 -0.20555924 0.13058096 -0.0634497 -0.14697032 0.14123963 -0.28851724 0.12822059 0.19859499 -0.22290975 -0.27003932 -0.008156132 -0.38703412 0.17941286 0.15970269 -0.57411456 -0.07579484 0.19336699 -0.11835209 0.14953926 0.1114678 0.19548355 0.010547462 -0.011578212 -0.1737688 0.10227834 -0.17126745 -0.052135214 -0.1959289 0.08233922 0.09825696 -0.14140992 0.17521697 0.0648389 0.17168199 0.034810964 -0.14130834 0.51787144 -0.17058551 -0.16762717 0.0040188166 -0.14296135 -0.2562738 0.42995661 -0.526562 -0.13371475 0.018538482 0.31129384 0.22622569 -0.04142248 -0.13523017 0.17122388 -0.13467872 -0.14879593 0.06175574 0.07446336 -0.0023958029 0.13917994 -0.049342033 -0.3352968 0.26093104 0.20695655 -0.11712383 -0.10800719 -0.032711823 0.27798843 0.23941875 0.30718967 0.006362897 -0.16808176 -0.14216788 -0.12633434 -0.04734047 -0.0049032215 0.05782134 -0.063656665 0.30859858 -0.29983044 -0.07257943 -0.11512929 0.23555526 0.028346593 0.39555156 -0.026037412 0.110370725 -0.028519565 0.071517006 0.010144004 -0.22996587 0.00041940794 -0.22489648 -0.27123946 0.19656366 0.42816165 -0.10430316 -0.054132644 0.09032187 -0.31828326 0.17390014 -0.06260855 -0.21263328 -0.07998771 0.020006584 0.14828613 -0.12881935 0.38189116 -0.044483628 0.21317731 0.010783064 -0.1592934 -0.08116727 0.06717958 -0.038343802 -0.037404526 0.10941433 0.2885213 0.21842799 0.17560466 -0.0008148541 0.19972105 -0.08249518 -0.011476184 0.2975777 0.20376931 0.2605156 -0.05990353 -0.05037007 -0.010122239 0.016062984 -0.21686189 -0.01687103 -0.03393485 0.07496781 0.30156764 -0.021260208 -0.167431 0.13492978 0.10502401 0.14177169 -0.1899016 -0.05163969 0.16332752 0.015175732 -0.17230448 -0.25563848 0.26632565 -0.04764449 -0.059626866 0.04961488 -0.03596822 0.32083002 0.04854811 0.023622517 -0.14480244 0.016302183 0.23606463 0.016459007 0.22993259 -0.119804434 0.1641907 0.030302668 0.012870822 -0.208403 0.13900414 0.014944338 -0.117703974 0.14337125 -0.07954838 -0.16337441 -0.09667804 -0.10263744 -0.14007895 0.094811775 -0.045597218 -0.039415188 -0.061065968 0.14062662 0.029130837 0.0701309 -0.03310451 0.2324054 -0.11929593 -0.010916286 -0.23875335 0.15253721 0.19925098 0.4034053 -0.12764987 -0.13241893 -0.007931951 0.08369232 0.226841 -0.2908253 -0.011556416 0.10829263 -0.14417675 -0.036905278 0.27250946 0.025651766 -0.09473065 0.073847875 -0.18401165 -0.09609167 -0.04460501 -0.10116679 -0.121138774 0.3174234 0.055257473 0.052572694 0.17961003 -0.11155055 0.009296099 0.184328 0.15889233 0.0726261 0.03443201 0.16142675 0.13656597 -0.08405843 -0.14525433 -0.41734242 0.16911328 -0.14384437 0.10926705 -0.24359299 0.23874806 0.0970279 -0.16757949 -0.16482651 -0.05062552 0.0024874748 -0.04810935 0.13240777 -0.22170508 0.0328059 0.41798353 -0.1453988 -0.39340627 -0.054577515 0.024932638 0.290653 0.04954569 -0.09993057 0.176041 -0.027594442 0.13796012 -0.13193634 0.040754 0.06534645 0.061749324 -0.082878456 -0.0022984191 -0.057598703 -0.16878194 -0.04543861 0.08189061 -0.06380774 0.2811658 0.004285886 0.108405925 -0.00095065683 0.16604042 -0.07616969 0.008186792 0.29238123 -0.08635371 0.027626567 0.10744391 -0.15249763 -0.24024084 0.058565155 -0.029131895 -0.25081202 0.15811181 0.095945016 0.23206 -0.0048659355 0.06733597 0.19088632 0.20853542 0.012719629 -0.0749614 -0.113344185 -0.38229144 -0.14355442 0.0077338773 0.12882707 0.14705428 -0.11479649 0.015450762 -0.30182123 0.13007148 0.09189074 -0.44876486 0.046459146 0.20124899 0.21543379 -0.13383387 -0.27614242 -0.017297866 0.022789 -0.008111454 -0.20490228 0.23813918 -0.18323943 0.13082337 0.011361963 0.25634828 0.13244876 0.2417712 -0.25545648 -0.016266635 0.058955926 -0.08605776 -0.25208783 -0.085330054 -0.0683525 -0.206938 -0.039256886 -0.1238953 0.109063685 -0.12153815 -0.15080449 -0.04140742 -0.08339228 -0.030600438 -0.109743744 0.27937087 0.25295314 0.12541094 -0.106833614 -0.4049537 -0.20264326 0.06300607 0.069199786 -0.16159134 0.2151804 -0.11274093 -0.14572632 0.27967924 0.15003487 -0.0774839 -0.04148429 0.22592178 -0.073998205 -0.1574322 -0.12804088 -0.08492266 -0.27357015 -0.018058864 0.3151273 -0.14833388 0.17722668 0.21491115 0.11285969
