ren_frame0.png 0.05398588 -0.033042148 -0.027376277 0.00975978 0.16149382 0.12813568 0.08633182 -0.028501144 0.11488817 -0.24870753 -0.23085234 -0.013224344 -0.19926602 -0.06961073 0.06382584 0.11720321 -0.3102696 -0.018405298 -0.12669319 -0.18187685 -0.337307 0.058349084 0.22231247 -0.1872188 -0.099903606 -0.11180974 0.3298314 0.09007628 -0.09655025 0.21401192 -0.01915427 -0.16993622 0.15600017 0.12174893 -0.31427673 0.11228461 0.22311592 -0.04388637 0.36939937 -0.02005864 -0.04594323 0.1761412 0.1269689 0.10152666 -0.1473326 0.091750205 -0.4076009 -0.07117653 0.2452917 -0.5377179 0.100705855 -0.016184652 -0.018975388 -0.18785012 0.08450565 0.12358347 -0.21072419 0.2397199 -0.045992587 -0.27987644 0.051249977 0.14968958 0.27659687 -0.32524142 -0.16413598 0.11550518 -0.09869 -0.022361431 -0.19113414 -0.12393627 -0.008446158 -0.182943 0.11204689 0.022652343 0.1247968 -0.049678233 0.41082644 -0.12839352 -0.13573179 0.110131264 0.106120855 0.0658924 0.1061566 0.037861403 -0.01585391 0.059362087 0.03535097 -0.014043175 -0.30162334 -0.041180596 -0.08574835 -0.19914593 0.01937003 0.17088003 0.19938882 0.11335039 0.08985366 0.087866135 0.021988386 0.069069974 0.014032346 -0.14622802 -0.02585409 0.064914264 0.111650966 0.04734187 -0.015234781 0.09655853 0.05440455 0.20780899 0.07142691 0.09306169 -0.124034695 0.27982995 -0.041269157 0.044247348 0.01086391 0.1877655 0.1927302 0.19467998 0.16786422 0.08363571 -0.30462405 -0.007273361 0.09105873 0.22872135 -0.020361051 -0.35539356 0.17708017 -0.18404703 -0.09388069 -0.1418347 0.008171612 -0.0887592 -0.21703763 -0.1194249 0.26929358 0.10843219 0.22157256 0.2134908 0.10123378 -0.04987387 -0.32079002 0.08155525 0.1516834 0.15029117 0.32447988 0.14779422 0.15766269 -0.19066346 0.013237793 0.07267425 -0.23428449 0.29613265 -0.14423724 -0.04894559 -0.16651258 0.06608997 0.21556608 -0.25019136 0.011762934 -0.13507345 -0.036356505 -0.17734484 -0.06093617 -0.10663731 0.21362579 -0.086665854 0.007441709 0.24512072 0.059435725 0.22324349 -0.08727821 -0.34885502 -0.26208863 0.07691639 -0.19176802 0.21340384 -0.15152036 0.054710764 -0.19321634 0.032742076 0.032879557 -0.17775676 0.51420224 0.20210788 -0.21039678 0.3502452 -0.044241235 0.08096419 0.1802035 0.1808377 0.24270195 0.026101017 -0.017022284 -0.4428073 -0.030393956 -0.20619671 -0.050309446 0.10329087 0.12249831 0.16588533 -0.07674337 -0.13950218 0.038466986 -0.036729768 0.023720577 0.21156181 -0.0054254215 -0.06103899 0.22068225 -0.17980826 0.020510837 -0.14308055 0.014274647 -0.023029272 0.18110816 0.19946395 0.005171958 -0.1834791 0.103077814 0.08732966 0.14044695 -0.03314815 -0.2906632 -0.02204727 0.08305542 0.09077518 -0.0300564 -0.031747166 0.22465765 0.17284516 0.123605564 0.29570228 -0.0376235 -0.15283354 0.24963278 0.05061365 0.15904835 0.22693141 -0.039635055 -0.19277625 0.013658649 0.12152719 -0.18258892 0.07598365 0.13827752 -0.048980337 0.0434431 -0.013289089 0.077695556 -0.069729276 0.032995455 0.20142403 -0.12366466 0.028279526 0.19967644 -0.106993675 -0.032672852 -0.07097197 -0.07812535 -0.085324846 -0.2728176 0.352802 -0.24038668 -0.13403222 -0.23321132 -0.20889562 -0.19639322 0.42362878 0.16196752 -0.070784554 0.00057987944 0.058228884 -0.1612449 -0.19512999 -0.11870266 -0.049838677 -0.12527291 -0.20718077 0.09974031 -0.15631337 -0.18836565 0.27715275 -0.10007224 0.04849028 0.2850365 -0.12637648 -0.013897992 -0.06734714 -0.073831394 0.30876374 -0.05488126 0.1901632 0.15100616 -0.005667828 -0.0115909465 0.038611997 0.016219266 -0.38705605 0.19552185 0.407538 0.12287498 -0.07112723 -0.07277754 -0.09899828 0.3140419 0.100025065 -0.220231 -0.115981326 -0.23372775 -0.1167583 0.2775903 0.1173209 -0.037977878 -0.24627753 -0.10317875 -0.10741076 0.22913484 -0.33246368 -0.04131226 -0.14918604 0.2366168 0.008904728 -0.12003867 0.26874453 -0.08131522 0.134152 0.17673732 0.06412562 0.08321762 -0.24397136 -0.12761387 -0.002086515 0.022733519 -0.16122995 0.15151437 -0.1536549 -0.017988797 -0.11723517 -0.38325766 -0.023538692 -0.1880911 0.14445654 -0.14626357 -0.16756424 -0.041150384 -0.12826422 -0.017715154 -0.10332511 0.044696577 0.16534972 0.017552968 0.16548839 0.092940524 -0.11391864 0.03288738 0.14707021 0.27294087 0.0814747 -0.26075453 0.10426045 -0.30091876 -0.0098752305 0.06896757 0.08041004 -0.15611397 0.12443311 -0.035591546 -0.2013541 0.4072669 -0.0651168 0.15723005 0.26113814 -0.20050676 0.11169946 0.09104682 -0.11874968 -0.06692184 0.10164838 0.14392933 0.033500712 -0.009303432 -0.07965081 0.051148724 -0.2690119 -0.37195554 0.08477952 0.03763255 -0.25325534 0.04268198 0.25523263 0.20334563 -0.097459085 -0.09565113 -0.34031615 -0.026677731 0.0844642 0.06845621 -0.17071958 -0.28785658 0.20186484 0.29539955 -0.01121117 0.13772231 0.054865927 0.42692575 0.3179744 -0.009897681 -0.035997182 -0.14725323 0.024896588 0.12053787 0.13617456 0.1869635 0.06162144 -0.009999789 0.1075334 0.3350415 -0.29564935 -0.122177035 -0.3824614 -0.08505022 -0.14267455 -0.26293048 -0.13245855 -0.2261704 0.273986 -0.069198556 -0.034445275 0.25091192 -0.17866158 0.023959586 -0.19000663 -0.168555 0.2877179 0.41528308 0.20521203 0.29028365 -0.090086184 0.1717362 -0.056686632 0.2517445 -0.16320175 0.08183207 0.15290652 -0.018292008 -0.07556753 -0.13909416 0.052352257 -0.093536936 -0.28729498 0.09385797 0.14960133 -0.16748153 -0.1117499 0.08007972 -0.16442566 0.22512543 -0.20709288 0.21618883 -0.06969372 -0.19039609 -0.3010376 0.24476112 0.09981855 -0.09587363 0.16247776 0.11554017 -0.26221073 -0.08079215 0.08521131 0.07311892 0.18893337 0.06764924 0.013689284 0.048447635 -0.05627805 0.22326027 -0.12772703 -0.116660476 -0.006950107 -0.009889857 0.1370634 -0.08826494 -0.10553551 -0.18688592 0.15766227 -0.22721866 0.033383023 0.093740836 0.08432847 0.1356531 0.031551965 0.056776688 0.42480424 0.035905696 0.13745728 -0.036643185 -0.1855218 0.0146814985 0.21079111 -0.07719021 -0.041452937 0.20630589 -0.028918939 -0.12362041 0.14068602 -0.052129626 0.14610177 -0.16917852 -0.24053454
ren_frame1.png 0.08476161 -0.040006004 -0.056052957 -0.0049892394 0.14139026 0.06431991 0.09618102 -0.057962175 0.031223238 -0.1953114 -0.27199745 -0.048563696 -0.14132808 -0.0027776468 0.0516883 0.07026689 -0.2763652 -0.029410515 -0.15634733 -0.1320209 -0.39689788 0.08294079 0.21778412 -0.14769231 -0.07414578 -0.12379054 0.40243763 0.036113035 -0.10851793 0.21220714 0.013799884 -0.29679552 0.03513052 0.13598958 -0.38461122 0.2270401 0.28379425 -0.012729746 0.41141102 -0.05853436 -0.1124275 0.095188715 0.1425163 0.13183157 -0.07028045 0.13128407 -0.44112593 -0.047892004 0.2435041 -0.43606108 0.161123 -0.043818466 0.04496295 0.050916728 0.070450835 0.03605031 -0.26754183 0.23527926 -0.063051715 -0.34051272 -0.03167594 0.23942783 0.37390774 -0.37347862 -0.2600436 0.14342734 -0.0042262375 0.030495528 -0.24264526 -0.1605742 -0.056414586 -0.20554982 0.06672673 -0.02997308 0.022518989 -0.10176939 0.4024355 -0.17407262 -0.13531408 0.12274277 0.05897253 0.051081054 0.09184102 -0.01565702 -0.07225733 -0.024729744 0.10780576 0.0581658 -0.23305665 -0.10295487 -0.16776367 -0.1247148 -0.0945028 0.12095445 0.25833404 0.093234606 -0.012036872 0.07073165 0.10190368 0.056082662 0.08121582 -0.004196165 0.02917187 0.17255566 0.104867116 0.008228729 -0.14512682 -0.015977988 0.0690712 0.29179516 0.07514824 0.0028705655 -0.033084337 0.29811683 -0.10904251 0.027024023 -0.008039606 0.07988332 0.3311241 0.22005361 0.12568109 0.09079781 -0.2083909 0.089948066 0.0036708117 0.28252366 -0.03376454 -0.38177183 0.19033839 -0.0779252 -0.080445446 -0.22974381 -0.0006079708 -0.16825642 -0.1523571 -0.16611631 0.25716496 0.06043053 0.20844947 0.0969272 0.023378182 -0.06428235 -0.3496011 0.22971025 0.23595811 0.113338836 0.45304033 0.20012735 0.16295204 -0.20046465 0.16031444 -0.016712008 -0.24100885 0.20532621 -0.11491837 -0.08308881 -0.15775032 0.021930322 0.3061671 -0.23986311 -0.0082865 -0.096021876 0.04238891 -0.17171034 -0.13463916 -0.053768426 0.08502403 -0.053581137 -0.09705305 0.12129441 0.005403373 0.16598783 -0.1459964 -0.21963827 -0.20123562 0.119319305 -0.059418347 0.17041579 0.024474587 0.003971304 -0.105951406 0.03126401 -0.08113725 -0.225072 0.60451794 0.24936357 -0.16664134 0.3896711 -0.09445811 0.118738696 0.15571673 0.08323213 0.33080864 0.07489739 -0.031686615 -0.5014594 -0.039798148 -0.10417357 -0.022279274 0.13715889 0.22279909 0.27535343 0.046473227 -0.22864354 0.025743652 -0.005774975 -0.09790087 0.24758592 0.0038594317 0.09471502 0.22179185 -0.04701079 0.10345773 -0.17173877 0.09125449 0.02336759 0.28959912 0.24105293 -0.07229186 -0.24704443 0.15217905 0.050243624 0.11328245 0.09153967 -0.2667718 -0.09929977 0.10773351 0.01195441 0.009849621 -0.092688344 0.19344977 0.19184516 0.09838156 0.1362716 0.08405469 -0.12111194 0.23008256 0.030117294 0.15488732 0.19532247 -0.034343105 -0.1592497 -0.028684221 0.16812055 0.009971082 0.11109868 0.27417094 -0.14494504 0.091578074 -0.04867771 0.03063491 -0.24012443 -0.009211876 0.25597638 -0.022952681 0.054228064 0.21004325 -0.021468258 0.013756723 -0.042082775 -0.021170024 -0.14185332 -0.32298097 0.37156457 -0.23294277 -0.2248314 -0.26165587 -0.1665815 -0.1918978 0.23754226 0.063763596 -0.04423693 -0.04296152 0.13711987 -0.027020594 -0.19591881 -0.17349552 -0.18652098 -0.16091827 -0.24702762 0.22361161 -0.069677435 -0.16626267 0.41865954 -0.089415655 -0.006549778 0.24379991 -0.12882781 0.0066729467 -0.1134475 -0.18645625 0.39953807 0.0233838 0.17141545 0.14019683 0.0655383 -0.13001335 0.1632362 0.07187193 -0.4300163 0.1016492 0.32367826 0.12527472 -0.01098117 -0.020085186 -0.0029296635 0.16844115 0.22471839 -0.20113288 -0.19008115 -0.22817373 -0.10904615 0.31281757 0.09749022 0.13316709 -0.21734655 -0.13035344 -0.063357584 0.18829994 -0.3410767 0.06049899 -0.16671447 0.17142068 -0.010422121 -0.23210227 0.14276543 -0.05035869 0.06949453 0.23411974 0.063304834 0.09344987 -0.14271149 -0.08107842 0.06191632 -0.055057634 -0.20193562 0.16773555 -0.17882796 -0.28339958 -0.061935596 -0.3600141 -0.062289175 -0.12161263 0.06484839 -0.116958156 -0.16832045 0.11914379 -0.15902361 0.028468512 -0.19223198 -0.121646374 0.26582032 -0.0626489 0.18348359 0.18654326 -0.16255064 0.0782773 0.14047526 0.2512787 0.13632339 -0.25414968 0.14708205 -0.33263624 0.10857019 0.018762842 0.008600154 -0.11776011 0.029544195 -0.09433399 -0.22122861 0.38598773 -0.15120876 0.17099127 0.2708888 -0.33728248 0.11204758 0.08327943 -0.08950418 -0.05449178 0.052259088 0.09629877 0.023340184 0.035708923 -0.11205316 0.040072896 -0.31260192 -0.32619885 0.07740361 0.068903044 -0.26421306 -0.020143421 0.28508142 0.12719078 -0.04624808 -0.10964254 -0.32789937 -0.07914024 0.026803352 0.06133957 -0.22825888 -0.18158875 0.25844792 0.21619166 0.017103534 0.090550356 -0.021905469 0.37012807 0.32064968 0.016212506 -0.053655975 -0.15080154 0.08457641 0.12054808 0.05289952 0.18740614 0.036687218 0.019120904 0.060086537 0.26837 -0.22982852 -0.107817 -0.42453447 -0.078456365 -0.17849037 -0.34117344 -0.07517834 -0.2927123 0.12985305 -0.14405556 -0.09968627 0.26039538 -0.13009544 -0.04444953 -0.24080598 -0.27864146 0.3827793 0.49683294 0.19319063 0.31504425 0.046179276 0.17074676 -0.16777337 0.19583209 -0.20083663 0.2004602 0.12474338 -0.09107401 -0.23462364 -0.31003168 -0.0017001552 -0.06949128 -0.40596297 0.08964283 0.12339158 -0.15082404 -0.0060426802 0.09914995 -0.13973539 0.23059005 -0.21065646 0.1813268 -0.0012074535 -0.16264044 -0.37716988 0.32346264 0.12314161 -0.109152496 0.12749997 0.21433519 -0.3490162 -0.15108979 0.11287729 0.17565392 0.29000443 0.10138319 0.022601532 0.22274107 -0.11322333 0.22456415 -0.1448434 -0.083966896 -0.15027864 -0.09478573 0.20429571 0.013297631 -0.014452199 -0.095274486 0.059104886 -0.24168716 0.020301858 0.0808161 -0.10693997 0.14398324 0.022451116 -0.08257981 0.50556684 0.057103124 0.11064308 -0.15091409 -0.13036832 0.08755121 0.14368376 -0.18127355 -0.1372538 0.08503939 -0.069977574 -0.16287032 0.1954993 -0.120387346 0.11703491 -0.05786551 -0.11369694
ren_frame2.png 0.05140773 -0.028123058 -0.10674541 -0.0023007137 0.14924978 0.00763132 0.042200588 -0.09757481 0.008067215 -0.15474589 -0.2606778 0.016332705 -0.037446912 -0.119859815 0.08924898 0.017045595 -0.14024056 -0.11678357 -0.017396864 -0.07512847 -0.25284696 0.10783614 0.25496382 -0.21694086 -0.068290986 -0.087691836 0.44423574 -0.010569703 -0.055289797 0.12516609 0.015072396 -0.37546828 -0.032978613 0.11064872 -0.30967283 0.3375442 0.30353352 0.017831357 0.4516696 0.0021338898 -0.11666767 0.04513553 0.05357546 0.06566185 -0.09743792 -0.018491728 -0.43169346 -0.086114354 0.28328112 -0.27105415 0.21346813 -0.007878803 0.110902324 0.20284177 0.119435176 0.017873462 -0.23659636 0.15580864 -0.15474093 -0.34554246 0.00999624 0.2747666 0.34443912 -0.42496708 -0.24357459 0.17759074 -0.013012387 0.030510793 -0.22117202 -0.23922634 0.010384953 -0.16896676 0.025990482 -0.05519678 -0.0042561903 -0.093893014 0.32268807 -0.16560708 -0.13891777 0.10542169 0.039990865 0.11530686 0.055679042 -0.036475997 -0.23190561 0.05505796 0.06731979 0.1257657 -0.16697696 -0.11512822 -0.10660079 -0.094646506 -0.09189545 0.06852099 0.29514197 0.053886976 0.00014199418 -0.033598997 0.1670282 0.0853 0.15105672 0.10342363 0.12899397 0.23107117 0.14942287 0.10177984 -0.25329298 0.0040642098 0.03340404 0.22225998 0.14359368 0.00025117898 0.0022420443 0.18602279 -0.09192719 -0.053573865 0.03406045 0.013578415 0.30945542 0.19753696 0.18864943 0.122670464 -0.017638741 0.036863513 0.056182757 0.23587498 0.034556936 -0.38165295 0.19222903 0.010225507 -0.06542189 -0.19087246 0.013243856 -0.2253695 -0.11403522 -0.18975244 0.18158343 -0.009090963 0.018255783 0.113807365 -0.1230402 -0.123832785 -0.3743344 0.25521675 0.2558304 0.059131753 0.4619086 0.09429697 0.1278631 -0.20599966 0.12851974 -0.07573078 -0.14819436 0.06041317 -0.16127202 -0.23588534 -0.046947397 -0.035157353 0.28949216 -0.23560277 -0.021714402 -0.12404621 0.020500893 -0.13199626 -0.21393615 -0.12123881 -0.029641226 0.030468445 -0.22763196 0.024355125 -0.069008425 0.073326394 -0.09408727 -0.003924502 -0.17276989 0.17205188 0.017770823 0.17001198 0.04265005 0.03640646 0.011309725 0.014317442 -0.16663468 -0.28382427 0.38672367 0.27625385 -0.10349861 0.26519197 -0.029667765 0.08404416 0.13767585 0.13384706 0.28583333 -0.03069445 -0.055536322 -0.39567077 0.04905992 0.022355236 -0.02790807 0.23925057 0.2654677 0.31096876 0.13812202 -0.31453338 0.0123605635 0.0552785 -0.1382677 0.21762599 -0.092134334 0.18007623 0.255628 0.018384539 0.09293585 -0.09899425 0.21412732 0.14934127 0.3011367 0.19641834 -0.098264046 -0.13731076 0.31120205 0.020042753 0.04859942 0.07575706 -0.22015283 -0.20970453 0.056611765 -0.017666826 0.06289712 0.017705863 0.1204961 0.19427994 0.17523469 0.041923203 0.09462761 -0.09679877 0.17008609 0.11613449 0.11853122 0.13146134 0.011192452 -0.06646824 -0.1534728 0.23178935 0.06265517 0.12782715 0.31991053 -0.13857986 0.14780952 -0.07922813 0.07675611 -0.3265883 -0.04888098 0.29039934 -0.0124295335 0.11414334 0.26095384 -0.08917789 0.053441267 0.06371832 0.07365941 -0.21453722 -0.33555108 0.3896874 -0.1889437 -0.23047838 -0.22609434 -0.083548784 -0.15287066 0.093662515 0.108133726 -0.08919393 -0.02638366 0.18234971 -0.064347014 -0.18866158 -0.25000173 -0.23372811 -0.19657293 -0.2100496 0.13214092 0.035573833 -0.06729103 0.3862442 -0.15026218 0.04988911 0.18745452 -0.014395243 0.044996336 -0.08827054 -0.19993602 0.41335934 0.012393046 0.18057819 0.041484304 0.045462668 -0.14185749 0.30476156 0.09884064 -0.4174799 -0.10107988 0.21189645 0.04056291 0.040250327 -0.06295935 -0.099063516 0.066221885 0.24862452 -0.3244814 -0.21328025 -0.12772655 -0.0046551162 0.3850348 0.18179832 0.30310962 -0.12519103 -0.087751746 -0.094210856 0.14714451 -0.34713036 0.14298142 -0.24294686 -0.0028612046 -0.09387536 -0.2635751 0.0006245896 -0.09413469 -0.10066976 0.28625444 0.13411102 0.19204475 0.034462992 0.06840675 0.06785016 -0.17814605 -0.312579 0.18458946 -0.22934866 -0.4290802 -0.051297612 -0.23127976 -0.14719245 -0.14566906 -0.008361002 -0.010729498 -0.27427894 0.17463556 -0.115583375 0.10380079 -0.16171221 -0.20661892 0.23163676 -0.08418621 0.08105988 0.11080936 -0.15913495 0.08734711 0.1736841 0.22051589 -0.012444813 -0.25704357 0.20532623 -0.24277107 0.097920336 -0.04779913 -0.09579226 -0.06683722 -0.05698893 -0.07399318 -0.293281 0.35718203 -0.12817892 0.2566839 0.09539794 -0.38012257 0.18466042 0.09644255 0.020758258 0.08384107 0.023409106 0.055679824 -0.03418167 0.03358279 -0.13487601 0.08135564 -0.20986849 -0.32167998 0.14910679 0.026051203 -0.2810842 -0.14861755 0.2556154 0.15862179 -0.050136887 -0.19558984 -0.16992615 -0.055248406 0.043266255 0.04988691 -0.24546425 -0.09079402 0.20232013 0.03607079 0.024250025 0.09917918 -0.0969184 0.21024889 0.23791157 0.029578561 -0.0671473 -0.09519068 0.07525039 0.16430007 -0.05209327 0.17443633 0.064951785 -0.041323625 -0.0491332 0.19471377 -0.19325013 -0.1565216 -0.34905925 -0.11118156 -0.21960612 -0.40194982 -0.08283682 -0.36001402 -0.018139174 -0.13003771 -0.11933607 0.28405336 -0.105617754 -0.09671481 -0.22132364 -0.38726315 0.42446044 0.50209934 0.17903697 0.40534154 -0.012023114 0.108382344 -0.1429881 0.18158744 -0.19516134 0.26354936 0.11052996 -0.14869891 -0.22107404 -0.277133 -0.14751464 -0.030303074 -0.38479742 0.070966415 0.047139287 -0.10032531 0.09306925 0.1549452 -0.07316834 0.19471404 -0.1758559 0.12748075 -0.015911821 -0.10471418 -0.46124566 0.36440387 0.14765571 -0.18268906 0.19620748 0.21672416 -0.41361985 -0.10151786 0.10798071 0.23627366 0.2512888 0.09756089 -0.021936214 0.28709617 -0.21861413 0.22091846 -0.027984967 0.015879365 -0.26671314 -0.094182454 0.20717025 -0.033954274 0.11603688 -0.08028755 -0.015660565 -0.21836023 0.060438044 0.061231326 -0.21707083 0.18119319 0.13340683 -0.15101416 0.5141702 -0.035952285 0.14890315 -0.22592117 -0.07609659 0.058454 0.09478476 -0.1583112 -0.2549028 -0.037575543 -0.017013675 -0.13127033 0.10603688 -0.1147477 0.11794179 -0.08763598 -0.13086882
ren_frame3.png -0.016348688 0.0016606955 -0.098157786 -0.0064618816 0.15459126 -0.01611116 0.012133595 -0.11023751 -0.041792106 -0.069446586 -0.33627412 0.023845842 0.10782079 -0.16444302 0.15157343 -0.057357647 -0.12711346 -0.10917638 0.18062901 -0.033985537 -0.21062736 0.114768595 0.1314169 -0.24264434 -0.09078979 -0.059063625 0.29418156 0.0060688234 -0.011463856 -0.00835681 0.1093538 -0.48466444 0.006840217 0.1300353 -0.1688864 0.4167908 0.32890183 -0.0055922545 0.4972407 0.04927589 -0.09527518 0.044723164 -0.04228619 0.061461218 -0.1949241 -0.062097367 -0.39146325 -0.2310296 0.20504649 -0.24447428 0.17511502 0.024858333 0.16603567 0.16890453 0.21254411 0.012004675 -0.17109007 0.0691987 -0.17801568 -0.32632053 0.039710935 0.28136382 0.34254944 -0.43599933 -0.25062597 0.22180706 0.06386388 -0.019398037 -0.11872419 -0.23059888 -0.040816125 -0.23360564 -0.05679278 -0.0742272 -0.07274854 -0.15131621 0.2536224 -0.11887487 -0.20047683 0.16793235 0.08940279 0.16464448 -0.021360775 -0.00753306 -0.28359517 0.24173874 0.07468964 0.053234994 -0.23382486 -0.08601161 -0.08662733 -0.013293613 -0.019513646 -0.031059368 0.2374196 0.10248404 0.012198921 -0.13612324 0.19774471 0.068248555 0.17319815 0.15091401 0.1527339 0.24200831 0.16543019 0.047858644 -0.24677457 -0.01537865 -0.019310746 0.24450873 0.019060893 0.06979838 -0.016251793 0.2422579 -0.025114259 0.024826562 0.025467603 -0.114754476 0.2892031 0.21537712 0.26844478 0.13758193 0.011970086 -0.13057575 0.11588235 0.2355429 0.13871486 -0.29928795 0.216183 0.111555904 -0.06667118 -0.1749839 -0.10419131 -0.28262028 -0.119193055 -0.15360586 0.17888011 -0.064396024 -0.11849862 0.21524125 -0.21673192 -0.24779458 -0.34479627 0.24917072 0.24610981 -0.00025238635 0.46298453 0.13496614 0.15928045 -0.22033049 0.13294119 -0.06530483 -0.0017127626 -0.016659105 -0.18872884 -0.19686879 -0.021495285 -0.06165902 0.28216022 -0.20670822 0.037321076 -0.12870806 0.054081585 -0.11974929 -0.26604807 -0.088557936 -0.075639814 0.043383066 -0.32592812 -0.013525203 -0.10470584 -0.013148185 -0.13880615 0.139695 -0.09807283 0.09753165 -0.055659298 0.116291 -0.022270225 0.055298883 -0.0017640564 -0.008311985 -0.22657268 -0.30736798 0.40603417 0.22973126 -0.13200247 0.16384882 -0.060936138 -0.015990473 0.13221766 0.09069578 0.26815513 -0.037551895 0.046537206 -0.22616898 0.083045565 0.10163756 -0.028914748 0.21663283 0.20925954 0.3746815 0.08128593 -0.48971167 0.053082548 0.16460729 -0.25884512 0.22551209 -0.16990525 0.24689965 0.23553003 0.0389929 0.06362413 -0.027150584 0.16642725 0.33154133 0.29758763 0.18553318 -0.0753998 -0.08279313 0.34501055 0.03528235 -0.053557068 0.03681047 -0.16403046 -0.27620363 -0.048841506 -0.08178286 0.06740787 0.03992467 0.23995142 0.22992386 0.14157513 0.092537306 0.094265245 -0.036058836 0.20175122 0.18614894 0.13567545 0.15951818 -0.058718633 -0.029413361 -0.123716995 0.22206888 0.07284899 0.14464976 0.27774498 -0.08377908 0.16212614 0.05345149 0.15578465 -0.4595989 -0.07630618 0.23187362 0.063044176 0.11157203 0.29439643 -0.19140677 0.10891267 0.14563219 0.14265032 -0.28941786 -0.336469 0.3918064 -0.19604424 -0.14301488 -0.14550886 -0.05212329 -0.08102041 0.09431806 0.19286653 -0.19539411 -0.005965139 0.16253462 -0.058431312 -0.16393743 -0.2674128 -0.25665843 -0.2788466 -0.13078263 0.08520156 0.02224528 0.009839801 0.37332264 -0.20175178 0.0026967207 0.24499896 0.06000727 0.08487653 -0.07280946 -0.18299934 0.436775 0.06365962 0.1812205 -0.015062793 0.12937021 -0.20846136 0.3937181 0.11686963 -0.41295803 -0.22662047 0.18461336 0.0042636637 0.029147588 -0.07853947 -0.14803484 0.09975556 0.22229616 -0.38693678 -0.26080874 -0.08639342 0.036092684 0.40497673 0.26727104 0.29585627 -0.14041862 -0.07233613 -0.09366559 0.14887932 -0.3280464 0.16750267 -0.23395525 -0.098391235 -0.17622174 -0.2785266 -0.024721665 -0.12656014 -0.19278169 0.31507087 0.21727805 0.17439364 0.06876408 0.123606026 0.07715233 -0.19570732 -0.32986528 0.027257012 -0.2873074 -0.5190338 -0.045809586 -0.09668279 -0.22801769 -0.31075647 -0.028660504 0.033478606 -0.28070095 0.05855182 -0.022860344 0.08493732 -0.112897955 -0.17716071 0.22132173 -0.081372224 0.018952075 0.071142174 -0.08620165 0.04465297 0.108916 0.12094257 -0.11082818 -0.17103025 0.23324363 -0.1553521 0.101344384 -0.08667766 -0.06457751 -0.07232134 -0.14569469 -0.011793926 -0.3023289 0.2980025 -0.0741967 0.42025945 0.1184054 -0.3130295 0.20975362 0.079414606 0.13021868 -0.042295896 0.042091 0.06767567 -0.042605434 -0.025406182 -0.17331277 0.07188984 -0.15668388 -0.15673007 0.23340316 -0.014024956 -0.1936648 -0.23835757 0.24833071 0.13415544 -0.06682885 -0.103938155 -0.10942919 -0.037617527 0.13496347 -0.06123634 -0.26204315 -0.048061274 0.06182229 -0.081741475 -0.09039603 0.1729693 -0.19038536 0.21407448 0.17805901 0.06254021 -0.1487579 -0.13400021 0.14045185 0.108051114 -0.1497402 0.2089074 0.13848719 -0.030855998 -0.102985926 0.12914783 -0.12245051 -0.12916982 -0.30130273 -0.11578909 -0.19846338 -0.4398043 -0.115096666 -0.41798744 0.05752036 -0.038378913 -0.06335044 0.30635807 -0.04709665 -0.07101645 -0.25711858 -0.3058037 0.50397295 0.5032105 0.14492218 0.3433746 -0.027843326 0.08896149 -0.104592785 0.100623876 -0.10956824 0.19913211 0.15281077 -0.14077397 -0.18003757 -0.2561905 -0.23240978 -0.020843094 -0.37897277 0.04299027 0.052014075 -0.10602129 0.15102416 0.18887578 -0.09728586 0.13851766 -0.26119828 0.11947097 0.049237646 -0.06396236 -0.35700396 0.2806343 0.21339579 -0.25606325 0.21289496 0.20207547 -0.41638523 0.04366551 0.14861357 0.29678288 0.12448676 0.11228071 0.016474977 0.25282508 -0.25610995 0.17064826 -0.005902314 0.12192845 -0.35519627 -0.04666718 0.21459183 -0.010954185 0.13441679 -0.12026195 -0.04677106 -0.1503315 0.056137245 0.014132794 -0.21695544 0.21438739 0.20581694 -0.19904666 0.57876444 -0.17066023 0.17889172 -0.15631174 -0.11118698 0.036150835 0.08882865 -0.07558681 -0.24608472 -0.09599169 0.091629446 -0.12276623 0.07926076 -0.14603224 0.22866239 -0.12864943 -0.14106141
ren_frame4.png 0.03735404 0.05213996 -0.061968457 -0.081155345 0.15896629 0.049712677 0.024365107 -0.14188491 0.00020065751 -0.00467947 -0.41979292 -0.0038338227 0.1607759 -0.2540723 0.2448702 -0.10631323 -0.13288088 -0.103753895 0.09656234 -0.051556062 -0.18492639 0.15081762 0.04483788 -0.29287001 -0.10317161 -0.010980925 0.28308642 -0.044421595 -0.033016637 -0.0045931037 0.1897819 -0.48559898 0.05398265 0.087686196 -0.13402691 0.38494772 0.3203431 -0.059159234 0.56830734 0.024135498 -0.092952095 0.053604364 -0.07908678 0.060982376 -0.15941505 -0.06815903 -0.38113016 -0.3627432 0.23338567 -0.28399888 0.23074469 -0.0127212545 0.18978477 0.13910665 0.30580235 -0.038346823 -0.15012082 0.0750437 -0.053219937 -0.36343288 0.099721745 0.23583996 0.30847195 -0.3550385 -0.27653208 0.25465885 0.12378408 -0.0012640841 -0.22887848 -0.209558 -0.012162305 -0.24648015 0.042832855 -0.121646635 -0.072362565 -0.17240211 0.27143064 -0.11885493 -0.18065748 0.22790287 0.1928211 0.11043149 -0.044824313 -0.05893218 -0.2225459 0.32305646 0.0751589 0.020941112 -0.34641728 -0.019027902 -0.06189367 0.045082465 0.025936332 -0.03765631 0.24721964 0.20872131 0.080097355 -0.14309265 0.16958037 0.013644219 0.120142095 0.20379333 0.17924343 0.20730355 0.025553424 0.022864712 -0.17436253 -0.05709306 -0.055872615 0.26278806 -0.011845218 0.28827086 -0.036832888 0.30787992 0.14061956 0.066653065 0.07134985 -0.13495219 0.221211 0.170754 0.26784387 0.14101626 0.026167348 -0.18424125 0.1499772 0.29835188 0.09373813 -0.24727336 0.21020749 0.018931303 -0.0062104748 -0.30761346 -0.14012225 -0.29848135 -0.075597584 -0.036446277 0.34821 -0.02713817 -0.16440079 0.19355762 -0.09404183 -0.23575257 -0.21814376 0.24801716 0.2809276 0.038202886 0.5065499 0.08023435 0.17671971 -0.32942057 0.12030992 0.004843549 -0.08217858 -0.022299573 -0.24851982 -0.11041935 0.046238374 -0.093850374 0.3370384 -0.2557017 0.06539914 -0.19328137 0.036793113 -0.11049259 -0.21007694 -0.05279004 -0.03749879 0.07156095 -0.26561823 -0.046830025 -0.20364387 0.0784239 -0.17614889 0.14307232 0.008682325 0.14175923 -0.13351962 0.13981065 -0.0054844064 0.12094202 -0.088241056 0.03948573 -0.18966268 -0.2800593 0.5263213 0.11211882 -0.19935623 0.18010563 -0.18055998 -0.02274731 0.16324739 0.028659815 0.22180818 -0.022194618 0.24776873 -0.27360764 0.08353123 0.09582773 -0.08742678 0.2432159 0.15953097 0.44593057 0.016938178 -0.5708879 0.021592524 0.252856 -0.30544335 0.19082968 -0.030886376 0.25176066 0.16304867 -0.016697444 0.0040631904 -0.047374535 0.122323714 0.35674584 0.17515868 0.081950545 -0.015565726 -0.06290959 0.32799363 0.098430425 -0.054252215 0.137206 -0.22192469 -0.20520306 -0.00977438 0.042339474 0.10024182 -0.116058156 0.39775816 0.22723773 0.20782018 0.19356535 0.021763546 -0.011823235 0.13459022 0.09675176 0.15659378 0.13925616 -0.09773849 -0.04326889 -0.16225755 0.22453508 0.091435924 0.015765632 0.27871156 -0.048644338 0.11151621 0.08739721 0.14597115 -0.4493049 -0.058104865 0.10375034 0.14925738 0.024988068 0.35939834 -0.24972111 0.01945256 0.19806655 0.20265302 -0.30537224 -0.39526373 0.4579163 -0.19462697 -0.13256484 -0.17508632 -0.16309378 -0.07487325 0.18315245 0.31067845 -0.22289962 0.05845394 0.09568554 -0.0027295998 -0.13986796 -0.24906257 -0.24275528 -0.42520756 -0.050464578 0.084485956 -7.2711455e-06 -0.09333308 0.42552477 -0.19184022 -0.048200484 0.35579437 0.056270346 0.15330039 -0.07214898 -0.14861244 0.44635552 0.07592388 0.2789066 -0.103132635 0.07490476 -0.3031398 0.2632613 0.10486248 -0.42509493 -0.17177324 0.28010538 -0.022754457 -0.048726328 -0.080388755 -0.1426786 0.13146852 0.15579581 -0.4245172 -0.25301525 -0.20223886 -0.11877084 0.4231118 0.20023447 0.19353038 -0.17735265 -0.083814524 -0.15260322 0.17348096 -0.3174018 0.107371114 -0.22718528 -0.08183515 -0.21800266 -0.32377642 0.044669732 -0.05465927 -0.12659168 0.35328627 0.10681528 0.24216133 0.0926029 0.037500728 0.1130834 -0.14972323 -0.3202381 -0.008189175 -0.31012014 -0.43560052 -0.001392092 -0.14297342 -0.2958639 -0.36112523 0.14713335 0.071551874 -0.30755004 -0.078900024 -0.027206246 0.07730676 -0.15391202 -0.14063631 0.24076317 -0.053975806 -0.094077334 0.11031374 -0.041755594 0.03261016 0.12764129 0.10219528 -0.15666401 -0.09894131 0.23280959 -0.09078665 0.16157714 -0.035558976 -0.047751527 -0.089464374 -0.036685888 0.060328662 -0.23007229 0.30704916 -0.07941097 0.42590117 0.1602393 -0.27278772 0.2460932 0.09039427 0.018229995 -0.17073463 0.06358983 0.14218387 -0.0154995425 -0.0682826 -0.1870709 0.05384505 -0.16686592 -0.10126214 0.20441958 -0.035422716 -0.15408844 -0.13511932 0.29593962 0.16972989 -0.12235594 -0.04038784 -0.20385818 -0.030586239 0.11754726 -0.009347442 -0.36038214 -0.1098368 0.02129297 0.029751707 -0.15622403 0.14184688 -0.20843257 0.3447413 0.21518424 0.15724747 -0.13792819 -0.20237392 0.139781 0.02879705 -0.12609416 0.2946564 0.22984885 -0.1763953 -0.050029106 0.21559568 -0.1832803 -0.058667913 -0.3964555 -0.14217554 -0.12603183 -0.52189654 -0.06649965 -0.43845204 0.11131776 -0.14787266 -0.07747596 0.32913303 -0.03886877 -0.027871815 -0.30541852 -0.24018407 0.5764799 0.5427673 0.05411181 0.20273085 0.012942554 0.06992246 -0.10965319 0.14569412 -0.08610063 0.25589776 0.105216615 -0.14727433 -0.040174633 -0.26485544 -0.26739922 -0.04736703 -0.42240915 0.080433466 0.10816767 -0.21520586 0.12841724 0.15338837 -0.17412387 0.16001768 -0.2626212 0.21117465 0.020983327 -0.11871961 -0.17420545 0.37676042 0.31746644 -0.31791708 0.19811465 0.16259463 -0.45619723 0.058486912 0.1238739 0.25948024 0.19415921 0.08019086 0.06537979 0.12101614 -0.23559384 0.13480599 -0.022941433 0.11847981 -0.3072308 0.023330519 0.17844073 0.013348846 0.1075304 -0.082888216 0.008689784 -0.13778263 0.050498877 0.08303461 -0.16068202 0.23740043 0.191827 -0.18894081 0.5376857 -0.14003843 0.19466287 -0.15611778 -0.1344896 0.06381651 0.18261005 -0.123241596 -0.17175081 0.05371294 0.110493705 -0.19167921 0.1483351 -0.2307968 0.2659808 -0.13842042 -0.19452706
res_frame0.png -0.38954028 -0.21946034 0.037103172 -0.030129384 0.08986733 -0.0714739 0.19892927 -0.05706206 0.23699583 0.05374222 -0.04696424 -0.04958086 -0.08265427 0.036554974 0.034614902 -0.054187343 -0.11402595 0.35874858 -0.059457634 0.005099631 -0.27879864 0.24833953 0.08871869 -0.1310824 0.0968154 -0.057611592 -0.028811887 0.091748945 0.14300469 -0.25276113 0.12933503 -0.11205045 0.12090398 0.08289838 0.14888717 -0.017563563 -0.070905276 0.19156143 -0.10065285 0.15970472 0.21524356 0.15084489 0.031212475 0.031135265 -0.16312195 0.11933634 -0.08875023 -0.021504464 -0.0010645033 0.10217455 -0.05583446 0.20710689 -0.0054183244 -0.16296797 -0.06769268 0.010927811 -0.231848 0.031715665 -0.03711169 0.07874792 0.2839553 0.02027172 0.4446162 -0.43786317 -0.2824973 0.1647851 0.3333487 -0.22773832 0.1078431 -0.16015618 0.015917107 0.009818928 0.29839033 -0.18970326 0.19386137 -0.14823605 -0.011254064 0.07018825 -0.06829195 -0.033461146 0.26234144 0.12255724 0.009339253 0.022455726 0.07995789 0.15571198 -0.021572271 -0.18729381 -0.01012327 0.00916693 0.05762402 0.11067643 0.3534312 -0.054984756 0.026000816 0.30687726 -0.23248719 0.10346297 0.12839292 0.15865651 0.22766028 0.05700595 -0.27860576 0.20190169 0.14288887 -0.39266995 -0.21807346 -0.10503834 0.29309034 0.109730616 -0.12285854 0.051685143 0.0057275645 0.011634667 0.1459533 -0.10468556 -0.11978285 0.018309332 0.16501498 0.1556585 0.30386686 0.013649613 0.17313218 -0.29415765 -0.21381877 0.08890063 -0.084681965 0.008893288 0.2254799 -0.07614528 0.10030992 0.1581537 -0.033017144 -0.06602912 -0.107252106 0.025934704 -0.13262223 0.16409263 0.011133094 0.13560686 -0.011177677 -0.033988588 0.05386705 0.030002372 0.27057144 -0.09196638 0.09963796 -0.016223473 0.29041263 -0.07243596 0.20306745 -0.21859586 -0.08542917 0.06303212 -0.054373357 0.026550328 -0.26911843 0.15512528 0.05507226 -0.07750313 0.09239383 -0.011978361 0.07320155 0.01853498 0.16304374 0.1500804 -0.20673372 0.023622828 -0.018234152 0.06785972 -0.18257195 -0.11670022 0.014360985 0.049580794 -0.041033182 -0.010484811 0.019262103 0.20589413 0.022023419 0.06741135 -0.08627792 0.1824211 -0.061514802 0.10978013 0.20109685 0.0021223726 -0.08852719 0.20866984 0.20757595 0.19347893 0.0336109 0.34848723 0.17120261 -0.053435046 0.06713272 0.1486734 -0.07204069 0.14810896 0.1351264 0.10069179 0.23413464 -0.0065615694 -0.077620134 -0.08046638 -0.143995 0.112177774 -0.12739256 0.057950154 -0.14099076 -0.08490449 -0.008468628 0.12289799 0.045701217 0.062372804 -0.07336874 0.060474142 0.22569251 -0.057191677 -0.07845005 0.07343561 -0.1229252 -0.005809181 -0.022800049 0.16241157 0.082740456 -0.08573276 -0.2781837 -0.013480751 0.13397604 0.0024214126 -0.15655036 -0.0505863 -0.021951992 0.009625374 -0.022664966 -0.05760664 0.13817134 0.08240552 -0.020748474 -0.20558344 -0.049369793 -0.20626259 0.078125395 0.019412886 -0.14321512 0.023896705 0.006358751 0.30649137 -0.14298503 0.0021785041 0.2691884 0.09654929 -0.36923823 0.14840502 -0.13229947 0.07529137 -0.036885332 0.072670534 -0.13944636 -0.00010758669 -0.1447519 -0.079268746 -0.02790992 -0.16149968 0.03387811 -0.03435467 0.06782744 0.13600726 -0.0027622473 0.2369659 -0.10927615 0.018394189 0.092952155 -0.13866192 -0.18765585 0.0601166 -0.17370097 0.07245999 -0.10493315 0.054586273 -0.21113762 0.04829848 0.07835168 -0.25509125 0.032850564 0.096325204 0.11250385 0.16080536 0.10505236 0.25292724 -0.23832038 -0.0014545945 0.15852395 0.018256593 -0.11750807 0.10768318 0.05596766 -0.037745077 0.26127663 -0.19295223 -0.011381374 0.09891794 -0.06498049 -0.029936647 -0.06074799 0.1856586 0.0077627334 -0.015969032 -0.0242176 -0.12782516 -0.06782252 0.34297293 0.17619623 0.20254251 0.04499792 0.12525666 -0.1565324 -0.05294757 0.09083085 0.11916047 0.055532474 -0.06281365 -0.05680006 0.2576312 0.109867714 0.04539832 -0.09772343 -0.10818374 0.13165034 0.04304416 0.13744858 0.04542058 -0.02911565 0.1331447 0.10377185 -0.09822436 0.31071565 -0.16102882 0.0047087045 -0.05139081 -0.14868616 -0.02022368 -0.23669934 0.040390346 -0.05096994 -0.05287411 -0.19887587 -0.043813393 0.106029056 -0.17308454 0.12593915 0.09594604 -0.215884 0.105094455 -0.18689424 -0.09992205 -0.15401791 0.21424346 -0.038810473 0.14910607 0.04940749 0.29142642 0.03453581 0.021333657 -0.057290025 0.19171265 0.07956481 -0.23010656 -0.26714158 -0.12918152 -0.0048846514 -0.037451696 -0.18568918 0.013044481 -0.019599678 -0.14645866 -0.10167478 0.12891337 -0.22054587 0.16914786 -0.0052234204 -0.05841463 0.20316826 -0.1285861 0.059488356 -0.16473281 0.08432773 -0.17762665 0.14789368 0.10975174 -0.26223627 0.2824324 0.044401873 0.06103955 0.22680897 0.11513084 -0.08836882 -0.20007911 0.09289261 -0.22447337 0.056411635 0.012612648 0.1878829 -0.2538275 0.071910806 -0.14482991 -0.035124354 0.018018993 -0.025760436 -0.109228365 -0.164073 -0.049162358 0.050071344 0.05129757 0.15958449 -0.100637935 -0.039439496 -0.06041085 -8.6437585e-06 0.06477441 -0.2575155 0.012482158 -0.018142939 -0.12671109 -0.115714155 -0.35512295 -0.19497888 -0.0127507355 0.113881275 -0.03303366 -0.16459394 -0.16908248 0.21748008 -0.09368858 -0.24277377 -0.05994371 0.029883243 -0.05140941 -0.114518255 -0.012491502 0.07809767 0.18644185 -0.047968734 0.02872176 -0.29333887 0.11467699 0.064922065 -0.18832782 -0.13198112 0.19615026 -0.046006 -0.02916367 0.057109866 0.12326259 0.10653839 -0.19860992 -0.14851336 0.10384485 0.029553335 -0.23298714 0.030745583 -0.044498537 -0.08133769 0.23807208 -0.2690121 -0.12656921 0.06763979 -0.12282293 0.32451478 0.11704914 -0.17093708 0.21896411 0.20372508 0.07411773 0.0046965037 0.108588465 -0.039558694 0.26444238 0.13537905 0.22730328 0.068366684 0.09298733 0.063100696 -0.024183983 -0.14439976 -0.1470393 -0.098417915 -0.08698636 -0.17259537 -0.18571785 -0.08407922 0.020700155 0.19721152 -0.036120526 -0.16142972 -0.19369747 -0.098365486 -0.21093826 -0.11026483 0.19779094 0.14685728 0.020286318 -0.061362278 -0.11040311 -0.19152167 -0.031214796 -0.048054844 -0.23206563 -0.24579655 0.2383102 -0.065425724 0.0018685277
res_frame1.png -0.3572363 -0.23713598 0.06118988 -0.012043583 0.066960566 -0.024732804 0.20785923 -0.13759395 0.1461134 0.04968782 -0.18571842 -0.045185506 -0.10938931 -0.025748419 0.1534891 -0.16585696 -0.088999644 0.38420454 -0.0006004118 0.057726327 -0.13167953 0.18731089 0.06435868 -0.20463909 0.091567494 -0.101917475 -0.0357239 0.021146405 0.15993957 -0.25173938 0.17483614 -0.16195099 0.11022655 0.016789183 0.22599338 -0.033408772 -0.13579276 0.16513528 -0.13516906 0.123622894 0.2609797 0.18839401 0.021353787 -0.04778569 -0.1315827 0.08913569 -0.15011625 -0.07668775 0.06700066 0.13805203 0.0017013114 0.20204826 0.07380494 -0.0012075684 -0.086751714 -0.1341073 -0.19190851 0.025010414 -0.07562857 0.012047569 0.30291778 0.09231341 0.51292807 -0.4709817 -0.26495036 0.22654039 0.34349415 -0.22478054 0.07195304 -0.13957584 0.095492385 -0.02223086 0.35235372 -0.18112363 0.13381237 -0.17504704 -0.011735969 0.08420101 9.9824676e-05 -0.013267753 0.23441821 0.11786631 -0.012876241 0.045563202 0.061546683 0.29353875 -0.09382205 -0.21802354 -0.040393017 0.045326147 0.026555851 0.14672911 0.36063808 -0.061365627 0.0005778321 0.30073875 -0.26513028 0.0980504 0.13543616 0.15916839 0.1829793 0.1524085 -0.25895146 0.19628221 0.12634179 -0.3243171 -0.17614354 -0.050098855 0.30351868 0.037164688 -0.13961025 0.10680984 0.027711425 -0.07253445 0.14811315 -0.086783335 -0.026795076 -0.03546469 0.04785424 0.07962019 0.31394783 0.07484609 0.2648307 -0.34251592 -0.19461226 0.048963223 -0.07070474 0.14599717 0.20762564 -0.08105737 0.10960649 0.19211116 -0.060512815 -0.15523677 -0.10939464 0.07317553 -0.040971782 0.11069493 -0.076915964 0.18470319 -0.036324464 -0.06931502 -0.009527722 0.060738593 0.25205296 -0.083491 0.17574154 -0.061972246 0.19928075 -0.026184697 0.15363385 -0.14609846 -0.1399168 0.061340697 -0.0651276 0.01356917 -0.2257644 0.06013329 0.033967093 -0.07082551 0.11855621 -0.020052256 0.08920087 -0.050543066 0.12856331 0.14937754 -0.13734531 -0.034827158 -0.076803125 0.13002989 -0.2659903 -0.052349232 0.046000984 0.12945682 -0.036288936 0.035239793 0.058271565 0.18439908 0.082016334 0.101770334 -0.11984176 0.25622144 -0.087805584 0.09772179 0.18267061 0.043514393 -0.14465292 0.2063857 0.23404853 0.17292984 0.05659123 0.38338712 0.13467363 -0.041851018 0.083675735 0.13494413 -0.012660336 0.16231953 0.13538586 0.1413299 0.19715196 0.16553102 -0.039998025 -0.16244356 -0.18416162 0.17682485 -0.12509938 0.033954468 -0.08311943 -0.09069379 -0.01102313 0.20626646 0.059260465 0.016342195 0.019269956 0.030852916 0.13996233 -0.07952785 -0.15878145 0.17558107 -0.10096303 0.0032712622 -0.12626326 0.1459685 0.07131574 -0.08024914 -0.17677198 0.008839821 0.20055363 -0.09668601 -0.17802297 0.005496403 0.025820313 -0.034217335 -0.018438052 -0.0035210187 0.20886289 0.054709673 -0.00021114008 -0.16594794 -0.0705713 -0.17559825 -0.03773963 0.029126586 -0.16912349 -0.013947352 0.10850346 0.3076989 -0.103125565 -0.048063785 0.23451936 0.02466971 -0.36466366 0.06300498 -0.110202 0.07389634 -0.00468586 0.013431489 -0.119511634 0.06122426 -0.17664793 -0.10475178 0.028265543 -0.16924042 0.0888841 -0.07603792 0.092863895 0.11134485 0.043422453 0.17304744 -0.06583522 -0.0077758203 0.08374256 -0.06803553 -0.14033805 -0.0059163836 -0.1870013 0.09562894 -0.15235397 0.09588441 -0.10581363 0.07751528 0.10386656 -0.2337681 0.09699599 0.06865732 0.16585772 0.20710012 0.14465475 0.21382475 -0.23347409 -0.061243784 0.22612359 0.020334302 -0.18205993 0.143668 0.070644446 -0.0155768795 0.25413352 -0.17882392 -0.0860645 0.10819045 -0.111275576 0.0063126725 -0.09240705 0.29034236 0.013856942 -3.253008e-05 0.012783466 -0.1255291 -0.01886778 0.30665773 0.17247488 0.19234253 0.089924455 0.10212804 -0.17992298 -0.053626098 0.072935686 0.11691035 0.072326094 0.0015737986 -0.10928628 0.18827459 0.03208547 0.11842121 -0.058445387 -0.05213555 0.0772414 0.05565187 0.2634957 0.052817646 0.023415864 0.16071767 0.0058278437 -0.12257301 0.34441292 -0.15925065 -0.013069156 0.0019357577 -0.12413117 -0.13550779 -0.22493136 0.042202644 -0.070971504 -0.023966247 -0.2455847 -0.07904947 0.15551017 -0.16861641 0.05847952 0.17548768 -0.19656298 0.053676594 -0.1163916 -0.1155801 -0.15543105 0.18556201 -0.17488533 0.105827175 0.0663923 0.3151237 0.052555494 0.014550025 -0.07688059 0.13599856 0.11313143 -0.1676346 -0.2588016 -0.16384491 -0.0009280198 0.022939738 -0.17874174 -0.0368581 -0.09233057 -0.06633538 -0.11189966 0.1398514 -0.2763128 0.20402534 -0.0046701157 -0.09877659 0.2472095 -0.17471553 0.15155445 -0.13928477 0.08785656 -0.15247244 0.12829098 0.1136943 -0.26648554 0.31654304 0.1329815 0.03833458 0.21821538 0.17712423 -0.15088575 -0.17625995 0.054381732 -0.30299407 0.043527327 -0.045621544 0.15079592 -0.22950909 0.1413792 -0.10143418 -0.09743888 0.07885644 -0.07685709 -0.1086799 -0.14464349 -0.08618197 -0.059714857 -0.012615864 0.23131798 -0.10345741 -0.07103691 -0.036196716 -0.010066923 -0.036241017 -0.3153521 0.017853072 -0.08364342 -0.117254004 -0.17183599 -0.440066 -0.15418264 -0.17571776 0.14845178 0.0035558918 -0.101321034 -0.108627245 0.20085235 -0.03582661 -0.3156888 -0.10146588 -0.012574856 -0.05547138 -0.03967625 -0.055136718 0.09131314 0.15926938 0.013748905 -0.006109517 -0.23202306 0.07222961 0.007715174 -0.1870941 -0.16496871 0.1197948 -0.00091664336 -0.03926748 0.05011224 0.13484827 0.047668174 -0.12646952 -0.16824189 0.05703861 0.049024303 -0.17790873 -0.106122434 -0.006921805 -0.026605085 0.2095429 -0.17755347 -0.10265258 0.003045499 -0.045322023 0.31279218 0.111394584 -0.13186595 0.23927124 0.30267903 0.08005482 -0.020879883 0.12298607 -0.009562604 0.26017806 0.11741973 0.18867601 0.09656064 0.027208183 0.04594478 -0.06536138 -0.15347369 -0.12890512 -0.11564988 -0.08870017 -0.14094114 -0.1925285 -0.06048037 -0.057433654 0.19289373 -0.047406208 -0.21097568 -0.1533652 -0.014731687 -0.18088478 -0.2404303 0.26026416 0.12721863 0.005294894 -0.027202176 -0.05010016 -0.15526862 -0.040416922 -0.07277763 -0.23762332 -0.18227218 0.237337 -0.12145579 -0.1288364
res_frame2.png -0.31256607 -0.23041913 0.08196463 0.00081670843 0.09453327 0.010456355 0.18249586 -0.18870921 0.08081202 0.07090941 -0.27674174 -0.04073842 -0.09352709 -0.09501728 0.30703187 -0.19898012 -0.036421936 0.37821788 0.07704579 0.11231324 -0.048367955 0.1190536 0.019842727 -0.23986939 0.0077274437 -0.12264363 -0.06998017 0.029571932 0.15035999 -0.19806598 0.19233546 -0.20138204 0.1492233 -0.05123033 0.24172907 -0.025017302 -0.117794365 0.12403118 -0.11798998 0.07061469 0.27268854 0.15252897 0.019255664 -0.122354195 -0.12208919 0.025527349 -0.18980353 -0.11578816 0.105700165 0.14045703 0.05593966 0.16795328 0.13890973 0.15249969 -0.06985094 -0.22105719 -0.1278904 -0.011265442 -0.04855751 -0.0659614 0.30662346 0.13917373 0.56426054 -0.3917309 -0.22689936 0.29045853 0.34008014 -0.21110344 0.047241837 -0.14170745 0.15380163 0.013245223 0.40354618 -0.13851534 0.14821579 -0.21435864 0.047925387 0.05075141 0.09275051 -0.0064510647 0.19480823 0.18026325 -0.025912588 0.05566083 0.030174881 0.34612596 -0.112008154 -0.22109416 -0.12017849 0.1008579 0.020983255 0.15595207 0.3506649 -0.059182473 0.048226044 0.29791763 -0.23412739 0.10654583 0.075502545 0.19777268 0.13833778 0.20092341 -0.22434449 0.22266354 0.06589426 -0.21342318 -0.16414191 0.0023790868 0.2907149 0.0017248526 -0.1776893 0.20509952 -0.0043246546 -0.13009185 0.20867954 -0.06979684 0.03448631 -0.063467115 -0.039539 -0.04204352 0.28494725 0.11254264 0.32311484 -0.36011416 -0.061498865 0.01937572 -0.075502835 0.17467818 0.20083414 -0.056839287 0.11977203 0.14884886 -0.0030986639 -0.24589181 -0.073215075 0.11482281 0.03812224 0.053649087 -0.1689758 0.23239663 -0.04931188 -0.11078013 -0.035332978 0.05737684 0.22934407 -0.07024474 0.24944241 -0.10619482 0.05951691 0.0149327805 0.12108666 -0.15744652 -0.1467438 0.033976227 -0.047897562 -0.005240842 -0.14967 0.004500797 0.0693472 -0.12566942 0.08138526 -0.111739255 0.037342634 -0.109400265 0.07436402 0.15955073 -0.02843083 -0.029545438 -0.059486337 0.15914355 -0.3285768 0.028001113 0.13917546 0.16490208 -0.000553961 0.026019968 0.07433318 0.17796738 0.15798722 0.17706062 -0.15943196 0.29005814 -0.0638137 0.06991099 0.1127916 0.07236803 -0.17182967 0.24277186 0.19612983 0.1558028 0.120630726 0.36969206 0.068433166 0.013079941 0.12924276 0.14705782 0.023972964 0.14187376 0.08125188 0.08115702 0.17869762 0.32397336 0.01710852 -0.22116825 -0.18722568 0.23966767 -0.18009819 0.0076447497 -0.03245247 -0.07224839 -0.017047957 0.24439125 -0.011022888 0.020422544 0.051574234 -0.019102842 0.08188325 -0.1420515 -0.16149876 0.29147825 -0.013923214 -0.028081324 -0.14574851 0.15703724 0.14292121 -0.14181632 -0.07799149 0.02911735 0.12710789 -0.080135904 -0.081231736 0.036096666 0.03492566 -0.00539388 -0.093966775 0.030118903 0.24828863 0.024508748 -0.043305017 -0.13496396 -0.13107128 -0.14335348 -0.12189031 0.047704585 -0.21264625 -0.09323979 0.18538429 0.34075066 -0.07916086 -0.12286818 0.09248346 -0.05815107 -0.328229 0.01985963 -0.050076433 0.09970031 -0.016886717 0.0009957427 -0.13118018 0.14788775 -0.17443356 -0.12131146 0.065334916 -0.16769426 0.14808871 -0.09244108 0.069666885 0.099831484 0.028031904 0.13781348 -0.067893736 -0.06223321 0.027646642 -0.03927995 -0.028486181 0.0077195615 -0.15812816 0.17858008 -0.19527544 0.12146364 -0.062472027 0.16452202 0.12362326 -0.2412326 0.11406458 0.057400554 0.19863982 0.23222454 0.17338029 0.18846957 -0.18976112 -0.12368376 0.23686075 0.07235292 -0.2732179 0.10122646 0.089185916 -0.0023311884 0.23333926 -0.15030243 -0.10210015 0.16058281 -0.14558731 -0.016296983 -0.095833726 0.3219137 -0.030463366 -0.006021005 -0.017865913 -0.14468266 0.06256975 0.28093418 0.21896546 0.18251574 0.11733978 0.117721185 -0.21981066 -0.042335138 0.04581935 0.057265047 0.09624616 0.054459274 -0.19350845 0.1134788 -0.05649287 0.16726346 -0.050449535 -0.032242637 0.06308569 0.05211378 0.3792627 0.075631954 0.012874188 0.1432118 -0.05970909 -0.15629305 0.3389752 -0.11410922 -0.042060424 0.020347334 -0.052261394 -0.18623821 -0.2455462 0.049584854 -0.022713708 -0.02426162 -0.27989027 -0.08211652 0.18327472 -0.18179575 0.017932348 0.215819 -0.17609054 -0.020441106 -0.042564318 -0.096073925 -0.18974257 0.09625925 -0.19571945 0.05706897 0.05526642 0.30195472 0.06570177 0.010234763 -0.07964902 0.097990304 0.1304533 -0.12643804 -0.23285638 -0.20822279 -0.005405516 0.1156112 -0.13590981 -0.07569913 -0.16960967 0.0444287 -0.102525845 0.17888586 -0.2363202 0.22725184 0.03002082 -0.13887207 0.24785379 -0.1817608 0.20320569 -0.19782375 -0.0052762823 -0.12532267 0.19858755 0.08611501 -0.26066077 0.33733502 0.16830686 0.054212768 0.19030595 0.19182774 -0.12743135 -0.14571553 0.11475437 -0.31053331 0.036417563 -0.10530076 0.16117576 -0.2012246 0.1706575 -0.122495145 -0.17389488 0.1086043 -0.060456462 -0.077881895 -0.13690114 -0.12062452 -0.09499005 -0.029533312 0.24399158 -0.08761316 -0.059699178 -0.0077265 -0.014018102 -0.12507872 -0.3618086 -0.031015527 -0.14768988 -0.059804577 -0.21405229 -0.3617165 -0.12786768 -0.3014425 0.16314754 0.026002822 -0.043782987 -0.034758545 0.10685244 -0.04214657 -0.35784805 -0.13979182 -0.01125587 -0.08564175 -0.025931142 -0.06922969 0.082745925 0.13232718 0.12328134 -0.04606647 -0.20600429 0.037854254 -0.032890294 -0.2041537 -0.14521325 0.07136518 0.050814632 -0.040046133 0.07334113 0.18348415 0.06558169 -0.11205465 -0.22195053 0.026677739 0.0845421 -0.0943349 -0.14145005 0.0037779608 0.032661155 0.13221897 -0.05810746 -0.07180812 -0.034675963 0.05737611 0.28347203 0.07036299 -0.11569974 0.21796702 0.36713207 0.05859535 0.001279783 0.16860381 0.014012553 0.29038593 0.14949355 0.15241946 0.117273256 0.014561645 0.075306445 -0.11883501 -0.11354712 -0.090095356 -0.10612579 -0.08173406 -0.11506068 -0.16829738 -0.04257712 -0.14677477 0.20064609 0.0097764125 -0.23714699 -0.12513225 0.06637133 -0.13691169 -0.3157632 0.26858145 0.13239223 0.009319696 -0.0902217 -0.017941397 -0.08200207 -0.0182911 -0.05930524 -0.17798887 -0.16637503 0.28003064 -0.1696531 -0.2352004
res_frame3.png -0.29552764 -0.23496455 0.0554799 0.017852949 0.08632129 0.033718098 0.18833694 -0.24091932 0.06433897 0.10694075 -0.33981287 -0.05002335 -0.065989904 -0.10692401 0.38651058 -0.16340096 -0.045207474 0.3622414 0.117555626 0.16978672 -0.058844056 0.102836736 -0.004927942 -0.28563035 -0.046005536 -0.1592216 -0.10764873 0.04937593 0.1544507 -0.16471657 0.17713107 -0.21742736 0.17272219 -0.11756456 0.2195214 -0.02676224 -0.10580526 0.08536313 -0.081501625 0.038735066 0.28055513 0.14888537 -0.008066856 -0.17606635 -0.12731929 -0.0032704608 -0.19970514 -0.10700108 0.12350828 0.11338564 0.030557243 0.11659594 0.11522119 0.19954276 -0.05231362 -0.2547162 -0.07136297 0.012183557 0.00963161 -0.054676984 0.35753572 0.18956923 0.57024807 -0.32925025 -0.16088417 0.30068737 0.28948563 -0.2285639 0.03247699 -0.16370992 0.12308878 0.041077275 0.44925845 -0.13338202 0.14647615 -0.26672283 0.09000818 -0.0010159165 0.12792219 0.031406358 0.14949557 0.23090354 -0.016803335 0.049051706 0.058583595 0.36422947 -0.10793736 -0.171347 -0.14611006 0.08493522 0.01224252 0.15011784 0.33087787 -0.051801585 0.08907483 0.34753102 -0.24017854 0.10998048 0.04429268 0.20266849 0.10936414 0.22283486 -0.19759965 0.28046936 0.031512886 -0.18077947 -0.16499922 0.053493943 0.25871 -0.025994033 -0.19365402 0.26077202 -0.029303195 -0.13872182 0.24352199 -0.05785889 0.059930358 -0.043942478 -0.048397295 -0.11673571 0.23010942 0.15503202 0.36767805 -0.39751825 0.06780229 0.013994575 -0.08038924 0.13943937 0.19100271 -0.01709412 0.14699137 0.105805 0.009671747 -0.3203884 -0.044580616 0.09841876 0.11182344 0.050087865 -0.20171599 0.2459857 -0.008945339 -0.10260466 -0.011700887 0.04505028 0.21425763 -0.07362474 0.3395731 -0.11705737 0.015928302 0.015920393 0.115470976 -0.12272906 -0.1789016 0.0074616023 -0.024924913 0.02177703 -0.0818038 -0.008068035 0.10535755 -0.18284246 0.08339706 -0.16766152 0.02555022 -0.1327249 0.097293474 0.16189624 0.041445047 -0.02543503 -0.03913686 0.15093346 -0.38747782 0.08785558 0.2592832 0.17741975 0.030451087 0.05013513 0.08335473 0.18339331 0.20914903 0.17773084 -0.20016003 0.3515676 -0.06915788 0.035875298 0.056809086 0.070692085 -0.15216263 0.30322626 0.13831672 0.17801253 0.14954533 0.40628788 0.064396575 0.014708852 0.17106709 0.16911863 0.043136038 0.14893222 -0.01208097 0.06769828 0.16003956 0.42534238 0.09096006 -0.25697562 -0.17197903 0.2678373 -0.20777051 -0.020547705 0.009796509 -0.09698771 -0.023612972 0.24506381 -0.049846247 0.02560365 0.06199755 -0.035780095 0.028854297 -0.19235699 -0.1297311 0.32171905 0.017680982 -0.05745978 -0.1474398 0.19314013 0.1933501 -0.21559153 -0.036846988 0.045637555 0.11573219 -0.082467996 -0.0005645038 0.07222545 0.08437353 0.04241406 -0.13968645 0.044061292 0.2587525 0.008957617 -0.024750963 -0.10356236 -0.1869412 -0.10171442 -0.1568745 0.04668312 -0.27004278 -0.18244459 0.1980779 0.3435408 -0.06271058 -0.15322666 0.0047617233 -0.07974591 -0.2847064 -0.011366349 -0.079866365 0.13691795 -0.036499456 -0.044283785 -0.11651959 0.21452491 -0.17566817 -0.12049509 0.0626986 -0.18228391 0.17100932 -0.08645836 0.062086463 0.12717558 0.050535023 0.12505074 -0.101325944 -0.08345076 0.0068908413 -0.05521003 0.033726882 0.046463147 -0.1766352 0.20415042 -0.24872012 0.13275458 -0.038088635 0.19587645 0.12394828 -0.21927543 0.117554665 0.08277431 0.21580708 0.3020493 0.2007811 0.13179415 -0.15486114 -0.11083836 0.22750707 0.12606548 -0.32175162 0.09541398 0.046798155 -0.0040371674 0.2255289 -0.17313686 -0.09644467 0.19331633 -0.12358266 -0.033914447 -0.08466615 0.3616848 -0.043017812 -0.023234611 -0.0049573453 -0.17285225 0.11742974 0.2523578 0.268615 0.18779472 0.110859506 0.14857802 -0.22146952 -0.048310753 0.048173655 0.013530236 0.11617922 0.080814786 -0.26534998 0.09984748 -0.09975325 0.16593349 -0.067457005 -0.06819013 0.061225142 0.06295182 0.4571708 0.05447413 -0.04238177 0.16262738 -0.07054824 -0.20053513 0.31595066 -0.077916026 -0.051922698 0.010791309 0.027023852 -0.18217863 -0.23736067 0.041214347 0.049622137 -0.01526332 -0.30525374 -0.08697006 0.2138151 -0.16970532 -0.0030204142 0.2399319 -0.15633324 -0.05074324 -0.04639488 -0.09602833 -0.23396927 0.07366551 -0.18618795 0.050381616 0.04666124 0.26392713 0.06442214 0.031992402 -0.08745806 0.09305832 0.10473729 -0.089253396 -0.20464602 -0.21758318 -0.027440459 0.1460406 -0.104987785 -0.07181592 -0.27010065 0.100710094 -0.12956503 0.19801877 -0.22315097 0.25673988 0.0112313 -0.16706312 0.23257957 -0.19564214 0.1822964 -0.22784404 -0.13257103 -0.09044991 0.24627705 0.07340427 -0.23347802 0.31924635 0.189446 0.0656429 0.12184525 0.1942773 -0.11741927 -0.13572976 0.20004489 -0.26904902 0.042734265 -0.17519659 0.21141972 -0.15677787 0.19170111 -0.14997783 -0.21961811 0.10638655 -0.015795091 -0.08048576 -0.16180132 -0.15167707 -0.08188797 -0.019988988 0.30179745 -0.079555936 -0.09145307 0.06381109 -0.021768004 -0.14160572 -0.3121971 -0.033423204 -0.19453612 -0.06953144 -0.24356574 -0.32842714 -0.17691556 -0.36468503 0.13687915 0.050216492 -0.040907633 -0.02456402 0.033871267 -0.06880494 -0.3809407 -0.15019241 -0.015355495 -0.1031454 0.0010325725 -0.09342923 0.067570105 0.11100299 0.17569104 -0.033490308 -0.17415579 0.037797872 -0.05116144 -0.20234872 -0.13340466 0.058183614 0.07386883 -0.07761198 0.09527335 0.20243573 0.06586931 -0.06270721 -0.26636425 0.019673489 0.07639166 -0.07831397 -0.12871823 -0.0045239753 0.07281164 0.08319676 -0.037367437 -0.06818917 -0.059211455 0.081599504 0.2525124 0.025522752 -0.12916905 0.1844987 0.36449027 0.06199716 0.022108208 0.17927521 0.018705076 0.31766668 0.17982866 0.1252112 0.16678366 0.04503387 0.11865731 -0.14860074 -0.06558267 -0.062136218 -0.08829286 -0.04971845 -0.13425174 -0.14604856 -0.020242758 -0.18059921 0.2251027 0.042975515 -0.23644514 -0.130804 0.100977056 -0.14284244 -0.3160177 0.31176442 0.12249378 0.024102494 -0.12476312 0.014292299 -0.021365654 -0.023794914 -0.056276213 -0.14375858 -0.18501677 0.29823783 -0.17746101 -0.28360882
res_frame4.png -0.29664817 -0.22716373 0.016663179 0.032882065 0.100100465 0.03402676 0.1890361 -0.24902506 0.09491782 0.112292185 -0.35542583 -0.06677204 -0.056346327 -0.09012611 0.41332707 -0.13863741 -0.08436152 0.36973554 0.08625916 0.2013444 -0.084060244 0.13221243 -0.0067515885 -0.31709176 -0.06849568 -0.17843375 -0.09554647 0.054795496 0.16443379 -0.13904239 0.19778526 -0.21842907 0.16113381 -0.1437826 0.19941296 -0.015000468 -0.11993396 0.04978848 -0.0628419 0.02671188 0.28904945 0.17698675 -0.048692968 -0.19819406 -0.09318835 -0.0322366 -0.18703213 -0.09587921 0.1431233 0.074932784 -0.0023154411 0.09536593 0.093319826 0.19719142 -0.044443164 -0.24999571 -0.06201378 0.030567875 0.028339911 -0.060263537 0.38713354 0.18569876 0.56339234 -0.28602114 -0.15635808 0.28042376 0.26444343 -0.26279122 0.036453918 -0.14618067 0.058117256 0.034308165 0.48495555 -0.13668911 0.159054 -0.29930827 0.10769534 -0.025634423 0.14072792 0.062098835 0.124651566 0.25857753 -0.035644293 0.0742122 0.07507513 0.35945672 -0.10906751 -0.108648084 -0.120073855 0.08615428 0.017054103 0.13480292 0.35690892 -0.067255184 0.11643142 0.39757204 -0.2529218 0.11103583 0.02350042 0.19255506 0.08564851 0.22543864 -0.17150292 0.28971317 0.01479318 -0.17828262 -0.12687579 0.047568858 0.2326705 -0.023408541 -0.18619686 0.31850648 -0.036681015 -0.11222443 0.24355058 -0.047040764 0.047570728 -0.00967391 -0.019011836 -0.1394143 0.203328 0.18632838 0.36716864 -0.42115963 0.12227085 0.0060682753 -0.102541864 0.13498537 0.19003764 -0.03491761 0.15296608 0.09107897 -0.010854137 -0.3272224 -0.043328077 0.10087312 0.14430761 0.02641814 -0.18995328 0.24892867 -0.005550282 -0.10583712 -0.011185525 0.04338224 0.21930823 -0.069311 0.35259768 -0.113763 0.006335913 0.017948061 0.096030936 -0.09530242 -0.18278931 -0.012026949 -0.02147634 0.03530634 -0.048261307 -0.008335407 0.11632485 -0.22527604 0.112129405 -0.19931874 0.023844952 -0.13800175 0.0925739 0.14110292 0.055491325 -0.03216616 -0.030348776 0.124337435 -0.41453895 0.085693985 0.28860864 0.16450788 0.049343083 0.052819926 0.05603789 0.18186061 0.24060617 0.16170439 -0.24461402 0.38509515 -0.054334614 0.044917036 0.02024824 0.046248823 -0.15175244 0.33084837 0.1021719 0.19826208 0.14733127 0.43956497 0.07373456 -0.011053935 0.17940664 0.15361434 0.050368354 0.14377505 -0.06015258 0.069646336 0.16021547 0.44304237 0.121542566 -0.25591752 -0.15020286 0.28343153 -0.2056098 -0.0107891485 0.038956285 -0.09286089 -0.037229165 0.22191516 -0.0725697 0.028065898 0.0677175 -0.052760452 0.010346369 -0.21292129 -0.09058983 0.3256434 0.039714284 -0.053558476 -0.12772721 0.21549858 0.22369032 -0.25425777 -0.034236345 0.06996268 0.12888584 -0.10337825 0.034513805 0.08223417 0.08740372 0.06845869 -0.16814329 0.047749914 0.21891497 0.0029726068 -0.023183484 -0.10415667 -0.2160268 -0.08276881 -0.1812445 0.037640918 -0.27838385 -0.21109743 0.19385894 0.34420574 -0.058527034 -0.1361973 0.017526647 -0.07702564 -0.2626314 -0.008498153 -0.08776136 0.13523465 -0.07108376 -0.08250634 -0.084230654 0.24112166 -0.17171924 -0.13583659 0.0469684 -0.17227614 0.18075135 -0.07685752 0.060226563 0.16684152 0.061839633 0.1484082 -0.13068788 -0.10451497 0.026583815 -0.05503278 0.06283209 0.059620842 -0.17902602 0.20881167 -0.268279 0.14335462 -0.018465888 0.21369529 0.1204114 -0.20272347 0.11895583 0.093906954 0.22528641 0.33352882 0.21810408 0.07873024 -0.11987636 -0.11191934 0.21988979 0.16555564 -0.33733043 0.08447948 0.013318412 -0.024978967 0.23904999 -0.20736015 -0.09584208 0.19661969 -0.107997544 -0.0572769 -0.049095757 0.3481298 -0.036505926 -0.019735225 -0.017670404 -0.17210054 0.110855475 0.23734795 0.29834113 0.19770692 0.08140354 0.15403582 -0.2363241 -0.047924563 0.07562364 0.021798987 0.11276138 0.086012684 -0.29143977 0.10111402 -0.09913809 0.14897215 -0.08322274 -0.10207563 0.042848814 0.07413315 0.46236074 0.03592917 -0.042094257 0.14955713 -0.07146404 -0.22354192 0.2674334 -0.06857666 -0.047859553 0.0047468664 0.02702698 -0.15443614 -0.20489158 0.044877917 0.09167745 -0.023221377 -0.32358104 -0.076464504 0.21730311 -0.17220211 -0.0022542023 0.2508237 -0.15913717 -0.052117374 -0.06058521 -0.091440804 -0.23158698 0.09870583 -0.18024136 0.04844606 0.031596895 0.2511227 0.061350286 0.05162226 -0.06800791 0.08904647 0.060004875 -0.06995406 -0.1781662 -0.19597688 -0.041501332 0.11333487 -0.06631092 -0.08186298 -0.30541277 0.09548115 -0.1479961 0.17585972 -0.22559191 0.24782217 0.010346838 -0.18365882 0.22628918 -0.20704584 0.17221157 -0.22547832 -0.1575618 -0.104883604 0.2552295 0.059378527 -0.19809881 0.3117572 0.18163872 0.0759757 0.11119638 0.18200703 -0.120387435 -0.16058937 0.22085871 -0.25715366 0.04444338 -0.17587164 0.22156054 -0.15848997 0.21368705 -0.1757712 -0.2069555 0.11195342 0.0142352125 -0.11889286 -0.18754168 -0.18602018 -0.07813365 0.004870137 0.33369234 -0.06827218 -0.10119541 0.082555376 -0.017411351 -0.14434665 -0.2983555 -0.04765273 -0.19081984 -0.10435022 -0.2719391 -0.35947892 -0.20119458 -0.35695115 0.113088794 0.03060724 -0.034172013 -0.0047343937 -0.0008390059 -0.094577365 -0.41355833 -0.15037614 -0.029854523 -0.113455996 0.0067502954 -0.086610176 0.06519531 0.1094978 0.16942601 0.011301779 -0.14544956 0.0069612022 -0.058791585 -0.18470718 -0.13540453 0.034959253 0.06668347 -0.10650395 0.10633404 0.19368164 0.058765415 -0.048441518 -0.30222392 0.039144114 0.050994642 -0.09645725 -0.083501086 -0.021273432 0.08810817 0.057133786 -0.029926652 -0.07599653 -0.052674927 0.054789815 0.26377875 0.025382845 -0.14877112 0.17072633 0.31520924 0.07491003 0.04109271 0.18031324 0.019188892 0.33326653 0.1787088 0.10535062 0.15971373 0.046043366 0.12907098 -0.15770598 -0.052219134 -0.043452594 -0.06841855 -0.029471476 -0.13616696 -0.16171968 -0.041577213 -0.18263419 0.23415743 0.05786741 -0.23253971 -0.12750708 0.10299102 -0.15459758 -0.30437312 0.3246356 0.11717596 0.045136143 -0.12299212 0.03548083 -0.0045755603 -0.05315393 -0.05793684 -0.10404017 -0.17016302 0.30124202 -0.19015646 -0.27995893
